{"learner":{"attributes":{"scikit_learn":"{\"_estimator_type\": \"classifier\"}"},"feature_names":["region_id","rain_mm","river_level_cm","tide_cm","temperature_avg","humidity_avg","wind_speed","elevation_m","api_7d"],"feature_types":["float","float","float","float","float","float","float","float","float"],"gradient_booster":{"model":{"gbtree_model_param":{"num_parallel_tree":"1","num_trees":"500"},"iteration_indptr":[0,1,2,3,4,5,6,7,8,9,10,11,12,13,14,15,16,17,18,19,20,21,22,23,24,25,26,27,28,29,30,31,32,33,34,35,36,37,38,39,40,41,42,43,44,45,46,47,48,49,50,51,52,53,54,55,56,57,58,59,60,61,62,63,64,65,66,67,68,69,70,71,72,73,74,75,76,77,78,79,80,81,82,83,84,85,86,87,88,89,90,91,92,93,94,95,96,97,98,99,100,101,102,103,104,105,106,107,108,109,110,111,112,113,114,115,116,117,118,119,120,121,122,123,124,125,126,127,128,129,130,131,132,133,134,135,136,137,138,139,140,141,142,143,144,145,146,147,148,149,150,151,152,153,154,155,156,157,158,159,160,161,162,163,164,165,166,167,168,169,170,171,172,173,174,175,176,177,178,179,180,181,182,183,184,185,186,187,188,189,190,191,192,193,194,195,196,197,198,199,200,201,202,203,204,205,206,207,208,209,210,211,212,213,214,215,216,217,218,219,220,221,222,223,224,225,226,227,228,229,230,231,232,233,234,235,236,237,238,239,240,241,242,243,244,245,246,247,248,249,250,251,252,253,254,255,256,257,258,259,260,261,262,263,264,265,266,267,268,269,270,271,272,273,274,275,276,277,278,279,280,281,282,283,284,285,286,287,288,289,290,291,292,293,294,295,296,297,298,299,300,301,302,303,304,305,306,307,308,309,310,311,312,313,314,315,316,317,318,319,320,321,322,323,324,325,326,327,328,329,330,331,332,333,334,335,336,337,338,339,340,341,342,343,344,345,346,347,348,349,350,351,352,353,354,355,356,357,358,359,360,361,362,363,364,365,366,367,368,369,370,371,372,373,374,375,376,377,378,379,380,381,382,383,384,385,386,387,388,389,390,391,392,393,394,395,396,397,398,399,400,401,402,403,404,405,406,407,408,409,410,411,412,413,414,415,416,417,418,419,420,421,422,423,424,425,426,427,428,429,430,431,432,433,434,435,436,437,438,439,440,441,442,443,444,445,446,447,448,449,450,451,452,453,454,455,456,457,458,459,460,461,462,463,464,465,466,467,468,469,470,471,472,473,474,475,476,477,478,479,480,481,482,483,484,485,486,487,488,489,490,491,492,493,494,495,496,497,498,499,500],"tree_info":[0,0,0,0,0,0,0,0,0,0,0,0,0,0,0,0,0,0,0,0,0,0,0,0,0,0,0,0,0,0,0,0,0,0,0,0,0,0,0,0,0,0,0,0,0,0,0,0,0,0,0,0,0,0,0,0,0,0,0,0,0,0,0,0,0,0,0,0,0,0,0,0,0,0,0,0,0,0,0,0,0,0,0,0,0,0,0,0,0,0,0,0,0,0,0,0,0,0,0,0,0,0,0,0,0,0,0,0,0,0,0,0,0,0,0,0,0,0,0,0,0,0,0,0,0,0,0,0,0,0,0,0,0,0,0,0,0,0,0,0,0,0,0,0,0,0,0,0,0,0,0,0,0,0,0,0,0,0,0,0,0,0,0,0,0,0,0,0,0,0,0,0,0,0,0,0,0,0,0,0,0,0,0,0,0,0,0,0,0,0,0,0,0,0,0,0,0,0,0,0,0,0,0,0,0,0,0,0,0,0,0,0,0,0,0,0,0,0,0,0,0,0,0,0,0,0,0,0,0,0,0,0,0,0,0,0,0,0,0,0,0,0,0,0,0,0,0,0,0,0,0,0,0,0,0,0,0,0,0,0,0,0,0,0,0,0,0,0,0,0,0,0,0,0,0,0,0,0,0,0,0,0,0,0,0,0,0,0,0,0,0,0,0,0,0,0,0,0,0,0,0,0,0,0,0,0,0,0,0,0,0,0,0,0,0,0,0,0,0,0,0,0,0,0,0,0,0,0,0,0,0,0,0,0,0,0,0,0,0,0,0,0,0,0,0,0,0,0,0,0,0,0,0,0,0,0,0,0,0,0,0,0,0,0,0,0,0,0,0,0,0,0,0,0,0,0,0,0,0,0,0,0,0,0,0,0,0,0,0,0,0,0,0,0,0,0,0,0,0,0,0,0,0,0,0,0,0,0,0,0,0,0,0,0,0,0,0,0,0,0,0,0,0,0,0,0,0,0,0,0,0,0,0,0,0,0,0,0,0,0,0,0,0,0,0,0,0,0,0,0,0,0,0,0,0,0,0,0,0,0,0,0,0,0,0,0,0,0,0,0,0,0,0,0,0,0,0,0,0,0,0,0,0,0,0,0,0,0,0,0,0,0,0,0,0,0,0,0,0,0],"trees":[{"base_weights":[-1.04180224E-1,-7.026713E-2,1.016973E-1],"categories":[],"categories_nodes":[],"categories_segments":[],"categories_sizes":[],"default_left":[0,0,0],"id":0,"left_children":[1,-1,-1],"loss_changes":[8.622761E1,0E0,0E0],"parents":[2147483647,0,0],"right_children":[2,-1,-1],"split_conditions":[2.6E2,-7.026713E-2,1.016973E-1],"split_indices":[2,0,0],"split_type":[0,0,0],"sum_hessian":[2.8966835E1,1.8221073E1,1.0745761E1],"tree_param":{"num_deleted":"0","num_feature":"9","num_nodes":"3","size_leaf_vector":"1"}},{"base_weights":[-6.6846884E-3,-1.2809486E0,1.9019108E0,-7.322539E-2,-7.153821E-2,4.5533245E-4,1.0412753E-1,-4.4928323E-2,3.9280538E-2],"categories":[],"categories_nodes":[],"categories_segments":[],"categories_sizes":[],"default_left":[0,0,0,0,0,0,0,0,0],"id":1,"left_children":[1,3,5,-1,7,-1,-1,-1,-1],"loss_changes":[8.3074875E1,4.441719E0,4.657337E0,0E0,3.3643138E0,0E0,0E0,0E0,0E0],"parents":[2147483647,0,0,1,1,2,2,4,4],"right_children":[2,4,6,-1,8,-1,-1,-1,-1],"split_conditions":[2.6E2,2.4E2,5E-1,-7.322539E-2,3.374E3,4.5533245E-4,1.0412753E-1,-4.4928323E-2,3.9280538E-2],"split_indices":[2,2,1,0,0,0,0,0,0],"split_type":[0,0,0,0,0,0,0,0,0],"sum_hessian":[3.215659E1,1.9479834E1,1.2676758E1,1.672974E1,2.7500942E0,1.1959206E0,1.1480837E1,1.3750471E0,1.3750471E0],"tree_param":{"num_deleted":"0","num_feature":"9","num_nodes":"9","size_leaf_vector":"1"}},{"base_weights":[-9.347492E-2,-1.309136E0,9.414631E-1,-4.4266013E-3,-7.099079E-2,-7.695335E-1,1.8359598E0,-9.3395627E-1,1.6056522E-3,1.01199925E-1,1.13351345E-2,-6.0137272E-2,5.309317E-3],"categories":[],"categories_nodes":[],"categories_segments":[],"categories_sizes":[],"default_left":[0,0,0,0,0,0,0,0,0,0,0,0,0],"id":2,"left_children":[1,3,5,-1,-1,7,9,11,-1,-1,-1,-1,-1],"loss_changes":[4.357769E1,2.0217304E0,3.012708E1,0E0,0E0,9.718628E-1,3.3587456E0,1.7947826E0,0E0,0E0,0E0,0E0,0E0],"parents":[2147483647,0,0,1,1,2,2,5,5,6,6,7,7],"right_children":[2,4,6,-1,-1,8,10,12,-1,-1,-1,-1,-1],"split_conditions":[9.03E1,2.69E1,8.8E1,-4.4266013E-3,-7.099079E-2,1.886E2,2.5E1,3.8E0,1.6056522E-3,1.01199925E-1,1.13351345E-2,-6.0137272E-2,5.309317E-3],"split_indices":[8,4,5,0,0,8,7,6,0,0,0,0,0],"split_type":[0,0,0,0,0,0,0,0,0,0,0,0,0],"sum_hessian":[3.265714E1,1.4895553E1,1.7761587E1,1.3880193E0,1.3507533E1,6.1457243E0,1.1615863E1,4.9627795E0,1.1829447E0,1.0169817E1,1.4460464E0,3.8194473E0,1.1433322E0],"tree_param":{"num_deleted":"0","num_feature":"9","num_nodes":"13","size_leaf_vector":"1"}},{"base_weights":[-8.892321E-2,-1.2080071E0,1.574811E0,-6.9112636E-2,-5.182498E-1,1.751348E0,-3.5605493E-3,2.8484354E-2,-4.675207E-2,7.3291516E-1,1.0022648E-1,4.8959773E-2,9.400715E-3],"categories":[],"categories_nodes":[],"categories_segments":[],"categories_sizes":[],"default_left":[0,0,0,0,0,0,0,0,0,0,0,0,0],"id":3,"left_children":[1,3,5,-1,7,9,-1,-1,-1,11,-1,-1,-1],"loss_changes":[6.0301456E1,1.6054688E0,3.9161491E0,0E0,3.024716E0,1.5793648E0,0E0,0E0,0E0,3.4334135E-1,0E0,0E0,0E0],"parents":[2147483647,0,0,1,1,2,2,4,4,5,5,9,9],"right_children":[2,4,6,-1,8,10,-1,-1,-1,12,-1,-1,-1],"split_conditions":[2.6E2,1.15E2,1.28E2,-6.9112636E-2,1.1E2,2.9E2,-3.5605493E-3,2.8484354E-2,-4.675207E-2,1.2E2,1.0022648E-1,4.8959773E-2,9.400715E-3],"split_indices":[2,8,3,0,3,2,0,0,0,3,0,0,0],"split_type":[0,0,0,0,0,0,0,0,0,0,0,0,0],"sum_hessian":[3.0366016E1,1.8318377E1,1.2047642E1,1.3822568E1,4.4958076E0,1.0822889E1,1.2247517E0,1.1436744E0,3.3521333E0,2.930331E0,7.8925586E0,1.469253E0,1.461078E0],"tree_param":{"num_deleted":"0","num_feature":"9","num_nodes":"13","size_leaf_vector":"1"}},{"base_weights":[6.731686E-2,-1.1569189E0,1.5178335E0,-6.4780526E-2,-7.488592E-3,-9.323176E-3,1.7160693E0,9.232661E-1,9.614749E-2,6.574126E-2,1.6609091E-2],"categories":[],"categories_nodes":[],"categories_segments":[],"categories_sizes":[],"default_left":[0,0,0,0,0,0,0,0,0,0,0],"id":4,"left_children":[1,3,5,-1,-1,-1,7,9,-1,-1,-1],"loss_changes":[5.7708836E1,2.2720184E0,5.338524E0,0E0,0E0,0E0,4.231491E-1,6.504626E-1,0E0,0E0,0E0],"parents":[2147483647,0,0,1,1,2,2,6,6,7,7],"right_children":[2,4,6,-1,-1,-1,8,10,-1,-1,-1],"split_conditions":[2.6E2,2.4E2,3.1E0,-6.4780526E-2,-7.488592E-3,-9.323176E-3,2.9E2,2.8E2,9.614749E-2,6.574126E-2,1.6609091E-2],"split_indices":[2,2,6,0,0,0,2,2,0,0,0],"split_type":[0,0,0,0,0,0,0,0,0,0,0],"sum_hessian":[3.0508972E1,1.6654764E1,1.3854209E1,1.4387135E1,2.267629E0,1.4497384E0,1.240447E1,3.697558E0,8.706913E0,1.4876478E0,2.2099102E0],"tree_param":{"num_deleted":"0","num_feature":"9","num_nodes":"11","size_leaf_vector":"1"}},{"base_weights":[4.5338817E-2,-1.1842719E0,9.28985E-1,3.215907E-3,-6.551439E-2,-6.15568E-1,1.608246E0,-1.8286565E-1,-4.933812E-2,8.839883E-2,1.0053962E-2,-3.1172514E-2,2.4788283E-2],"categories":[],"categories_nodes":[],"categories_segments":[],"categories_sizes":[],"default_left":[0,0,0,0,0,0,0,0,0,0,0,0,0],"id":5,"left_children":[1,3,5,-1,-1,7,9,11,-1,-1,-1,-1,-1],"loss_changes":[3.382182E1,2.1347904E0,1.9962103E1,0E0,0E0,8.228781E-1,2.5297356E0,1.5385051E0,0E0,0E0,0E0,0E0,0E0],"parents":[2147483647,0,0,1,1,2,2,5,5,6,6,7,7],"right_children":[2,4,6,-1,-1,8,10,12,-1,-1,-1,-1,-1],"split_conditions":[9.03E1,2.69E1,8.8E1,3.215907E-3,-6.551439E-2,2.88E1,2.5E1,1.482E2,-4.933812E-2,8.839883E-2,1.0053962E-2,-3.1172514E-2,2.4788283E-2],"split_indices":[8,4,5,0,0,4,7,8,0,0,0,0,0],"split_type":[0,0,0,0,0,0,0,0,0,0,0,0,0],"sum_hessian":[2.9115433E1,1.2032193E1,1.708324E1,1.1479256E0,1.0884268E1,5.2466946E0,1.1836546E1,3.1118474E0,2.1348474E0,1.0399651E1,1.4368955E0,1.9361572E0,1.1756902E0],"tree_param":{"num_deleted":"0","num_feature":"9","num_nodes":"13","size_leaf_vector":"1"}},{"base_weights":[1.0000397E-1,-5.7639427E-2,9.2882866E-1,-5.5884164E-2,1.480752E0,-2.6347822E-2,8.5601166E-2],"categories":[],"categories_nodes":[],"categories_segments":[],"categories_sizes":[],"default_left":[0,0,0,0,0,0,0],"id":6,"left_children":[1,-1,3,-1,5,-1,-1],"loss_changes":[3.372665E1,0E0,2.3659725E1,0E0,8.226269E0,0E0,0E0],"parents":[2147483647,0,0,2,2,4,4],"right_children":[2,-1,4,-1,6,-1,-1],"split_conditions":[8.8E1,-5.7639427E-2,7.29E1,-5.5884164E-2,3.1E0,-2.6347822E-2,8.5601166E-2],"split_indices":[5,0,8,0,6,0,0],"split_type":[0,0,0,0,0,0,0],"sum_hessian":[3.0449953E1,1.196844E1,1.8481514E1,3.7078538E0,1.477366E1,1.3939556E0,1.3379704E1],"tree_param":{"num_deleted":"0","num_feature":"9","num_nodes":"7","size_leaf_vector":"1"}},{"base_weights":[-1.2849114E-2,-1.1276728E0,1.2263155E0,-6.350232E-2,-4.1667455E-1,1.3918537E0,-1.091769E-3,-4.7300052E-2,2.617465E-2,1.9214077E-2,1.5238513E0,2.028437E-2,8.081591E-2],"categories":[],"categories_nodes":[],"categories_segments":[],"categories_sizes":[],"default_left":[0,0,0,0,0,0,0,0,0,0,0,0,0],"id":7,"left_children":[1,3,5,-1,7,9,-1,-1,-1,-1,11,-1,-1],"loss_changes":[4.278787E1,1.1206684E0,3.062189E0,0E0,2.5890963E0,1.1394825E0,0E0,0E0,0E0,0E0,4.9516106E-1,0E0,0E0],"parents":[2147483647,0,0,1,1,2,2,4,4,5,5,10,10],"right_children":[2,4,6,-1,8,10,-1,-1,-1,-1,12,-1,-1],"split_conditions":[2.5E2,2.2E2,2.5E1,-6.350232E-2,2.1E0,5E-1,-1.091769E-3,-4.7300052E-2,2.617465E-2,1.9214077E-2,2.7E2,2.028437E-2,8.081591E-2],"split_indices":[2,2,7,0,1,1,0,0,0,0,2,0,0],"split_type":[0,0,0,0,0,0,0,0,0,0,0,0,0],"sum_hessian":[2.8972122E1,1.5298597E1,1.3673524E1,1.2091126E1,3.207471E0,1.1970749E1,1.7027746E0,2.048138E0,1.1593329E0,1.8396326E0,1.0131117E1,1.1852884E0,8.945828E0],"tree_param":{"num_deleted":"0","num_feature":"9","num_nodes":"13","size_leaf_vector":"1"}},{"base_weights":[-9.548937E-3,-1.0585814E0,1.2724583E0,-6.364642E-2,-1.8559622E-2,4.8365352E-1,8.09015E-2,-4.182711E-2,4.7866058E-2,8.76982E-1,-2.4364285E-2,1.4615322E-2,5.7966944E-2],"categories":[],"categories_nodes":[],"categories_segments":[],"categories_sizes":[],"default_left":[0,0,0,0,0,0,0,0,0,0,0,0,0],"id":8,"left_children":[1,3,5,-1,7,9,-1,-1,-1,11,-1,-1,-1],"loss_changes":[3.9026096E1,3.5330296E0,2.7781315E0,0E0,3.7871826E0,2.491758E0,0E0,0E0,0E0,3.552034E-1,0E0,0E0,0E0],"parents":[2147483647,0,0,1,1,2,2,4,4,5,5,9,9],"right_children":[2,4,6,-1,8,10,-1,-1,-1,12,-1,-1,-1],"split_conditions":[2.6E2,3.8E0,2.9E2,-6.364642E-2,2.25E2,2.8E1,8.09015E-2,-4.182711E-2,4.7866058E-2,1.176E2,-2.4364285E-2,1.4615322E-2,5.7966944E-2],"split_indices":[2,6,2,0,2,4,0,0,0,8,0,0,0],"split_type":[0,0,0,0,0,0,0,0,0,0,0,0,0],"sum_hessian":[2.7016968E1,1.49544325E1,1.2062535E1,1.2213336E1,2.7410965E0,4.4056773E0,7.656858E0,1.5688609E0,1.1722355E0,3.2043579E0,1.2013192E0,1.7063211E0,1.4980369E0],"tree_param":{"num_deleted":"0","num_feature":"9","num_nodes":"13","size_leaf_vector":"1"}},{"base_weights":[8.383072E-3,-1.0037693E0,1.2159401E0,-6.1954834E-2,-1.8037133E-1,-1.1704559E-2,1.3951249E0,-3.780988E-2,3.947882E-2,7.705658E-2,6.0560334E-1,2.3958485E-3,4.7515318E-2],"categories":[],"categories_nodes":[],"categories_segments":[],"categories_sizes":[],"default_left":[0,0,0,0,0,0,0,0,0,0,0,0,0],"id":9,"left_children":[1,3,5,-1,7,-1,9,-1,-1,-1,11,-1,-1],"loss_changes":[3.8745872E1,3.1190681E0,4.0815544E0,0E0,3.392292E0,0E0,5.659809E-1,0E0,0E0,0E0,6.613548E-1,0E0,0E0],"parents":[2147483647,0,0,1,1,2,2,4,4,6,6,10,10],"right_children":[2,4,6,-1,8,-1,10,-1,-1,-1,12,-1,-1],"split_conditions":[2.6E2,1.14E2,8.9E1,-6.1954834E-2,3.8E0,-1.1704559E-2,6.271E3,-3.780988E-2,3.947882E-2,7.705658E-2,4.6E0,2.3958485E-3,4.7515318E-2],"split_indices":[2,8,5,0,6,0,0,0,0,0,6,0,0],"split_type":[0,0,0,0,0,0,0,0,0,0,0,0,0],"sum_hessian":[2.970232E1,1.625034E1,1.345198E1,1.2245667E1,4.0046725E0,1.4457774E0,1.2006202E1,2.6511467E0,1.353526E0,9.329004E0,2.6771984E0,1.4577501E0,1.2194481E0],"tree_param":{"num_deleted":"0","num_feature":"9","num_nodes":"13","size_leaf_vector":"1"}},{"base_weights":[-4.543451E-2,-1.0570647E0,1.0749162E0,-6.023125E-2,-3.571562E-1,-2.8449068E-2,1.3355321E0,1.957037E-2,-4.3161612E-2,5.917443E-1,7.6399215E-2,-8.309306E-3,4.7833428E-2],"categories":[],"categories_nodes":[],"categories_segments":[],"categories_sizes":[],"default_left":[0,0,0,0,0,0,0,0,0,0,0,0,0],"id":10,"left_children":[1,3,5,-1,7,-1,9,-1,-1,11,-1,-1,-1],"loss_changes":[3.2656456E1,1.1312008E0,6.625942E0,0E0,1.8736103E0,0E0,8.303242E-1,0E0,0E0,1.29931E0,0E0,0E0,0E0],"parents":[2147483647,0,0,1,1,2,2,4,4,6,6,9,9],"right_children":[2,4,6,-1,8,-1,10,-1,-1,12,-1,-1,-1],"split_conditions":[2.5E2,2.2E2,3.1E0,-6.023125E-2,2.8E1,-2.8449068E-2,3.8E0,1.957037E-2,-4.3161612E-2,2.71E1,7.6399215E-2,-8.309306E-3,4.7833428E-2],"split_indices":[2,2,6,0,4,0,6,0,0,4,0,0,0],"split_type":[0,0,0,0,0,0,0,0,0,0,0,0,0],"sum_hessian":[2.6810785E1,1.4118686E1,1.26921E1,1.1064798E1,3.0538878E0,1.5748888E0,1.111721E1,1.323223E0,1.7306647E0,3.122841E0,7.9943695E0,1.1919072E0,1.9309336E0],"tree_param":{"num_deleted":"0","num_feature":"9","num_nodes":"13","size_leaf_vector":"1"}},{"base_weights":[6.0981503E-3,-1.1117929E0,1.1634938E0,-6.01361E-2,-1.8442774E-2,-2.963298E-3,1.2940133E0,6.880707E-2,1.3470501E-2],"categories":[],"categories_nodes":[],"categories_segments":[],"categories_sizes":[],"default_left":[0,0,0,0,0,0,0,0,0],"id":11,"left_children":[1,3,5,-1,-1,-1,7,-1,-1],"loss_changes":[3.8571743E1,5.810032E-1,2.413868E0,0E0,0E0,0E0,7.4640274E-1,0E0,0E0],"parents":[2147483647,0,0,1,1,2,2,6,6],"right_children":[2,4,6,-1,-1,-1,8,-1,-1],"split_conditions":[2.5E2,2.3E2,5E-1,-6.01361E-2,-1.8442774E-2,-2.963298E-3,2.5E1,6.880707E-2,1.3470501E-2],"split_indices":[2,2,1,0,0,0,7,0,0],"split_type":[0,0,0,0,0,0,0,0,0],"sum_hessian":[2.7811996E1,1.4167482E1,1.3644514E1,1.2071199E1,2.096283E0,1.368623E0,1.227589E1,1.1047287E1,1.2286038E0],"tree_param":{"num_deleted":"0","num_feature":"9","num_nodes":"9","size_leaf_vector":"1"}},{"base_weights":[6.482409E-2,-1.0571907E0,1.0832514E0,-4.883613E-1,-5.8381297E-2,5.2250195E-1,7.197925E-2,7.0184427E-3,-4.0448E-2,1.0548095E0,-4.9150974E-2,2.1703465E-2,6.248134E-2],"categories":[],"categories_nodes":[],"categories_segments":[],"categories_sizes":[],"default_left":[0,0,0,0,0,0,0,0,0,0,0,0,0],"id":12,"left_children":[1,3,5,7,-1,9,-1,-1,-1,11,-1,-1,-1],"loss_changes":[3.1717087E1,2.612362E-1,2.1488018E0,8.938001E-1,0E0,6.815719E0,0E0,0E0,0E0,1.601491E-1,0E0,0E0,0E0],"parents":[2147483647,0,0,1,1,2,2,3,3,5,5,9,9],"right_children":[2,4,6,8,-1,10,-1,-1,-1,12,-1,-1,-1],"split_conditions":[2.5E2,7.8E0,2.9E2,2.8E1,-5.8381297E-2,6.271E3,7.197925E-2,7.0184427E-3,-4.0448E-2,1.176E2,-4.9150974E-2,2.1703465E-2,6.248134E-2],"split_indices":[2,7,2,4,0,0,0,0,0,8,0,0,0],"split_type":[0,0,0,0,0,0,0,0,0,0,0,0,0],"sum_hessian":[2.5754301E1,1.2235846E1,1.3518455E1,2.8708487E0,9.364998E0,6.2109046E0,7.30755E0,1.1593666E0,1.711482E0,4.809708E0,1.4011967E0,1.9200375E0,2.8896704E0],"tree_param":{"num_deleted":"0","num_feature":"9","num_nodes":"13","size_leaf_vector":"1"}},{"base_weights":[-2.8473355E-2,-1.0736609E0,9.8699343E-1,-5.868698E-2,-8.363165E-3,-1.7196586E-2,1.1946414E0,2.1315103E-2,1.302532E0,6.9915615E-2,2.688599E-2],"categories":[],"categories_nodes":[],"categories_segments":[],"categories_sizes":[],"default_left":[0,0,0,0,0,0,0,0,0,0,0],"id":13,"left_children":[1,3,5,-1,-1,-1,7,-1,9,-1,-1],"loss_changes":[3.193016E1,1.1473064E0,4.6319904E0,0E0,0E0,0E0,5.585213E-1,0E0,7.55043E-2,0E0,0E0],"parents":[2147483647,0,0,1,1,2,2,6,6,8,8],"right_children":[2,4,6,-1,-1,-1,8,-1,10,-1,-1],"split_conditions":[2.5E2,2.3E2,3.1E0,-5.868698E-2,-8.363165E-3,-1.7196586E-2,1.176E2,2.1315103E-2,1.25E2,6.9915615E-2,2.688599E-2],"split_indices":[2,2,6,0,0,0,8,0,3,0,0],"split_type":[0,0,0,0,0,0,0,0,0,0,0],"sum_hessian":[2.8085947E1,1.3812192E1,1.4273756E1,1.2173159E1,1.6390333E0,1.8378276E0,1.2435928E1,2.1408908E0,1.0295038E1,8.413123E0,1.8819143E0],"tree_param":{"num_deleted":"0","num_feature":"9","num_nodes":"11","size_leaf_vector":"1"}},{"base_weights":[1.6895674E-2,-1.0268148E0,9.574109E-1,-4.964465E-1,-5.7011552E-2,-2.7842699E-2,1.1911019E0,-3.6318343E-2,-4.703418E-3,6.932427E-2,4.258549E-1,-2.6605908E-2,5.0483476E-2],"categories":[],"categories_nodes":[],"categories_segments":[],"categories_sizes":[],"default_left":[0,0,0,0,0,0,0,0,0,0,0,0,0],"id":14,"left_children":[1,3,5,7,-1,-1,9,-1,-1,-1,11,-1,-1],"loss_changes":[2.6432009E1,2.0214272E-1,5.6720524E0,3.03676E-1,0E0,0E0,1.290556E0,0E0,0E0,0E0,2.7755358E0,0E0,0E0],"parents":[2147483647,0,0,1,1,2,2,3,3,6,6,10,10],"right_children":[2,4,6,8,-1,-1,10,-1,-1,-1,12,-1,-1],"split_conditions":[2.5E2,1.09E2,3E0,1.05E2,-5.7011552E-2,-2.7842699E-2,6.271E3,-3.6318343E-2,-4.703418E-3,6.932427E-2,4.1E0,-2.6605908E-2,5.0483476E-2],"split_indices":[2,3,6,3,0,0,0,0,0,0,6,0,0],"split_type":[0,0,0,0,0,0,0,0,0,0,0,0,0],"sum_hessian":[2.492529E1,1.1770996E1,1.3154292E1,3.021018E0,8.749978E0,1.5737685E0,1.15805235E1,1.4100981E0,1.61092E0,8.578453E0,3.0020702E0,1.1702967E0,1.8317734E0],"tree_param":{"num_deleted":"0","num_feature":"9","num_nodes":"13","size_leaf_vector":"1"}},{"base_weights":[-6.1467844E-3,-1.0975509E0,1.0133629E0,-5.7148248E-2,-1.4713581E-2,-2.683464E-2,1.1915962E0,1.5871963E-3,1.3017856E0,2.132645E-2,6.79229E-2],"categories":[],"categories_nodes":[],"categories_segments":[],"categories_sizes":[],"default_left":[0,0,0,0,0,0,0,0,0,0,0],"id":15,"left_children":[1,3,5,-1,-1,-1,7,-1,9,-1,-1],"loss_changes":[3.0783228E1,1.5099335E-1,4.592126E0,0E0,0E0,0E0,1.638277E0,0E0,1.4665604E-2,0E0,0E0],"parents":[2147483647,0,0,1,1,2,2,6,6,8,8],"right_children":[2,4,6,-1,-1,-1,8,-1,10,-1,-1],"split_conditions":[2.5E2,2.4E2,7.86E1,-5.7148248E-2,-1.4713581E-2,-2.683464E-2,3.1E0,1.5871963E-3,5E-1,2.132645E-2,6.79229E-2],"split_indices":[2,2,8,0,0,0,6,0,1,0,0],"split_type":[0,0,0,0,0,0,0,0,0,0,0],"sum_hessian":[2.566585E1,1.2358886E1,1.3306964E1,1.1297308E1,1.0615771E0,1.1649001E0,1.2142064E1,1.1652062E0,1.0976858E1,1.1860197E0,9.790838E0],"tree_param":{"num_deleted":"0","num_feature":"9","num_nodes":"11","size_leaf_vector":"1"}},{"base_weights":[9.9741414E-2,-9.028146E-1,9.3649113E-1,-5.4919787E-2,-1.8424729E-1,3.8030717E-1,6.4764455E-2,3.336074E-2,-3.902609E-2,5.8270272E-2,-1.0017901E-1,-4.296643E-2,3.1914246E-1,-1.0074551E-2,3.0192886E-2],"categories":[],"categories_nodes":[],"categories_segments":[],"categories_sizes":[],"default_left":[0,0,0,0,0,0,0,0,0,0,0,0,0,0,0],"id":16,"left_children":[1,3,5,-1,7,9,-1,-1,-1,-1,11,-1,13,-1,-1],"loss_changes":[2.1297598E1,1.427906E0,2.257244E0,0E0,2.390866E0,2.6891425E0,0E0,0E0,0E0,0E0,1.913982E0,0E0,7.2163117E-1,0E0,0E0],"parents":[2147483647,0,0,1,1,2,2,4,4,5,5,10,10,12,12],"right_children":[2,4,6,-1,8,10,-1,-1,-1,-1,12,-1,14,-1,-1],"split_conditions":[2.5E2,1.15E2,2.9E2,-5.4919787E-2,1.252E2,8E0,6.4764455E-2,3.336074E-2,-3.902609E-2,5.8270272E-2,1.81E1,-4.296643E-2,2.71E1,-1.0074551E-2,3.0192886E-2],"split_indices":[2,8,2,0,8,7,0,0,0,0,7,0,4,0,0],"split_type":[0,0,0,0,0,0,0,0,0,0,0,0,0,0,0],"sum_hessian":[2.3380022E1,1.0600284E1,1.2779738E1,7.9168644E0,2.683419E0,5.819185E0,6.9605536E0,1.05621E0,1.6272088E0,1.6680979E0,4.1510873E0,1.1036613E0,3.047426E0,1.1806971E0,1.8667288E0],"tree_param":{"num_deleted":"0","num_feature":"9","num_nodes":"15","size_leaf_vector":"1"}},{"base_weights":[3.1723097E-2,-8.373869E-1,9.645085E-1,-5.3466316E-2,6.780975E-2,1.1352644E0,-1.52489245E-2,-3.5199724E-2,4.3159343E-2,5.1432526E-1,6.4389E-2,4.0739304E-3,4.0439446E-2],"categories":[],"categories_nodes":[],"categories_segments":[],"categories_sizes":[],"default_left":[0,0,0,0,0,0,0,0,0,0,0,0,0],"id":17,"left_children":[1,3,5,-1,7,9,-1,-1,-1,11,-1,-1,-1],"loss_changes":[1.989378E1,2.743659E0,2.9085312E0,0E0,2.7779732E0,3.4440613E-1,0E0,0E0,0E0,4.1349256E-1,0E0,0E0,0E0],"parents":[2147483647,0,0,1,1,2,2,4,4,5,5,9,9],"right_children":[2,4,6,-1,8,10,-1,-1,-1,12,-1,-1,-1],"split_conditions":[2.7E2,3.8E0,1.28E2,-5.3466316E-2,2.25E2,2.9E2,-1.52489245E-2,-3.5199724E-2,4.3159343E-2,4E0,6.4389E-2,4.0739304E-3,4.0439446E-2],"split_indices":[2,6,3,0,2,2,0,0,0,6,0,0,0],"split_type":[0,0,0,0,0,0,0,0,0,0,0,0,0],"sum_hessian":[2.254296E1,1.17227335E1,1.0820225E1,9.187335E0,2.535399E0,9.630567E0,1.1896574E0,1.3450779E0,1.1903212E0,2.7611845E0,6.8693824E0,1.6348053E0,1.1263791E0],"tree_param":{"num_deleted":"0","num_feature":"9","num_nodes":"13","size_leaf_vector":"1"}},{"base_weights":[6.317202E-2,-8.726945E-1,8.185343E-1,-5.358358E-2,-1.3703838E-1,-2.6091386E-2,9.827755E-1,3.2626577E-2,-3.733469E-2,1.1441951E0,-1.482736E-2,6.149255E-2,1.0812937E-2],"categories":[],"categories_nodes":[],"categories_segments":[],"categories_sizes":[],"default_left":[0,0,0,0,0,0,0,0,0,0,0,0,0],"id":18,"left_children":[1,3,5,-1,7,-1,9,-1,-1,11,-1,-1,-1],"loss_changes":[1.7432587E1,1.4701385E0,3.5073977E0,0E0,2.1712444E0,0E0,2.9133768E0,0E0,0E0,6.301327E-1,0E0,0E0,0E0],"parents":[2147483647,0,0,1,1,2,2,4,4,6,6,9,9],"right_children":[2,4,6,-1,8,-1,10,-1,-1,12,-1,-1,-1],"split_conditions":[2.5E2,1.15E2,7.86E1,-5.358358E-2,1.252E2,-2.6091386E-2,1.28E2,3.2626577E-2,-3.733469E-2,2.5E1,-1.482736E-2,6.149255E-2,1.0812937E-2],"split_indices":[2,8,8,0,8,0,3,0,0,7,0,0,0],"split_type":[0,0,0,0,0,0,0,0,0,0,0,0,0],"sum_hessian":[2.2649488E1,1.0046681E1,1.2602806E1,7.548295E0,2.4983864E0,1.1380498E0,1.1464756E1,1.0579274E0,1.440459E0,1.0274045E1,1.190711E0,9.107947E0,1.1660984E0],"tree_param":{"num_deleted":"0","num_feature":"9","num_nodes":"13","size_leaf_vector":"1"}},{"base_weights":[1.6009131E-2,-8.1866366E-1,9.2762727E-1,-5.3355545E-2,-2.7021962E-1,5.5142857E-2,1.6814917E-3,-3.917241E-2,4.30095E-2],"categories":[],"categories_nodes":[],"categories_segments":[],"categories_sizes":[],"default_left":[0,0,0,0,0,0,0,0,0],"id":19,"left_children":[1,3,5,-1,7,-1,-1,-1,-1],"loss_changes":[1.9398153E1,1.5264359E0,1.8704853E0,0E0,3.8598275E0,0E0,0E0,0E0,0E0],"parents":[2147483647,0,0,1,1,2,2,4,4],"right_children":[2,4,6,-1,8,-1,-1,-1,-1],"split_conditions":[2.6E2,1.091E2,1.25E2,-5.3355545E-2,2.1E0,5.5142857E-2,1.6814917E-3,-3.917241E-2,4.30095E-2],"split_indices":[2,8,3,0,1,0,0,0,0],"split_type":[0,0,0,0,0,0,0,0,0],"sum_hessian":[2.3495556E1,1.231864E1,1.1176915E1,7.827187E0,4.4914527E0,9.149855E0,2.0270605E0,3.3000832E0,1.1913695E0],"tree_param":{"num_deleted":"0","num_feature":"9","num_nodes":"9","size_leaf_vector":"1"}},{"base_weights":[1.502687E-1,-8.560079E-1,1.0110046E0,-5.2607454E-2,-1.5365641E-1,-4.9999226E-3,1.1533237E0,2.9394403E-2,-3.580175E-2,2.518634E-2,6.2001146E-2],"categories":[],"categories_nodes":[],"categories_segments":[],"categories_sizes":[],"default_left":[0,0,0,0,0,0,0,0,0,0,0],"id":20,"left_children":[1,3,5,-1,7,-1,9,-1,-1,-1,-1],"loss_changes":[2.0653309E1,1.3638973E0,2.1348019E0,0E0,1.9174523E0,0E0,1.7494202E-2,0E0,0E0,0E0,0E0],"parents":[2147483647,0,0,1,1,2,2,4,4,6,6],"right_children":[2,4,6,-1,8,-1,10,-1,-1,-1,-1],"split_conditions":[2.5E2,3.5E0,3.1E0,-5.2607454E-2,1.1E2,-4.9999226E-3,1.176E2,2.9394403E-2,-3.580175E-2,2.518634E-2,6.2001146E-2],"split_indices":[2,6,6,0,3,0,8,0,0,0,0],"split_type":[0,0,0,0,0,0,0,0,0,0,0],"sum_hessian":[2.1846098E1,1.0074088E1,1.177201E1,7.4855967E0,2.5884914E0,1.3705194E0,1.040149E1,1.0968459E0,1.4916456E0,2.026668E0,8.374823E0],"tree_param":{"num_deleted":"0","num_feature":"9","num_nodes":"11","size_leaf_vector":"1"}},{"base_weights":[-1.8149735E-2,-9.3784076E-1,7.7547365E-1,-5.3037852E-2,-9.621738E-3,-2.7554845E-2,1.0040016E0,6.471692E-2,8.238237E-2,-4.6318702E-2,4.419253E-2],"categories":[],"categories_nodes":[],"categories_segments":[],"categories_sizes":[],"default_left":[0,0,0,0,0,0,0,0,0,0,0],"id":21,"left_children":[1,3,5,-1,-1,-1,7,-1,9,-1,-1],"loss_changes":[1.7562944E1,8.1627655E-1,4.4728518E0,0E0,0E0,0E0,2.939352E0,0E0,3.8869805E0,0E0,0E0],"parents":[2147483647,0,0,1,1,2,2,6,6,8,8],"right_children":[2,4,6,-1,-1,-1,8,-1,10,-1,-1],"split_conditions":[2.5E2,3.9E0,3.1E0,-5.3037852E-2,-9.621738E-3,-2.7554845E-2,6.271E3,6.471692E-2,2.9E2,-4.6318702E-2,4.419253E-2],"split_indices":[2,6,6,0,0,0,0,0,2,0,0],"split_type":[0,0,0,0,0,0,0,0,0,0,0],"sum_hessian":[2.2066095E1,1.013705E1,1.1929047E1,8.338917E0,1.798133E0,1.5455947E0,1.0383452E1,7.588453E0,2.7949994E0,1.1684722E0,1.6265271E0],"tree_param":{"num_deleted":"0","num_feature":"9","num_nodes":"11","size_leaf_vector":"1"}},{"base_weights":[8.187642E-3,6.6659105E-1,-7.469442E-1,-3.9053272E-2,5.622443E-2,-9.698819E-1,3.2169886E-2,-5.27818E-2,-1.3119294E-2],"categories":[],"categories_nodes":[],"categories_segments":[],"categories_sizes":[],"default_left":[0,0,0,0,0,0,0,0,0],"id":22,"left_children":[1,3,5,-1,-1,7,-1,-1,-1],"loss_changes":[1.1870352E1,9.328652E0,4.0725894E0,0E0,0E0,3.2894707E-1,0E0,0E0,0E0],"parents":[2147483647,0,0,1,1,2,2,5,5],"right_children":[2,4,6,-1,-1,8,-1,-1,-1],"split_conditions":[2.8E1,7.86E1,4.1E0,-3.9053272E-2,5.622443E-2,1.886E2,3.2169886E-2,-5.27818E-2,-1.3119294E-2],"split_indices":[4,8,6,0,0,8,0,0,0],"split_type":[0,0,0,0,0,0,0,0,0],"sum_hessian":[2.1873838E1,1.1747972E1,1.0125867E1,2.653401E0,9.094571E0,8.987206E0,1.1386606E0,7.5767684E0,1.4104378E0],"tree_param":{"num_deleted":"0","num_feature":"9","num_nodes":"9","size_leaf_vector":"1"}},{"base_weights":[1.2743656E-1,-8.3921164E-1,9.3385786E-1,-5.111903E-2,-2.354463E-1,1.075265E0,-1.4578824E-2,3.059868E-2,-3.8803983E-2,5.7640072E-2,1.5569177E-2],"categories":[],"categories_nodes":[],"categories_segments":[],"categories_sizes":[],"default_left":[0,0,0,0,0,0,0,0,0,0,0],"id":23,"left_children":[1,3,5,-1,7,9,-1,-1,-1,-1,-1],"loss_changes":[1.8695738E1,9.73299E-1,2.5663338E0,0E0,2.2407858E0,3.4401798E-1,0E0,0E0,0E0,0E0,0E0],"parents":[2147483647,0,0,1,1,2,2,4,4,5,5],"right_children":[2,4,6,-1,8,10,-1,-1,-1,-1,-1],"split_conditions":[2.5E2,1.15E2,1.27E2,-5.111903E-2,1.252E2,1.25E2,-1.4578824E-2,3.059868E-2,-3.8803983E-2,5.7640072E-2,1.5569177E-2],"split_indices":[2,8,3,0,8,3,0,0,0,0,0],"split_type":[0,0,0,0,0,0,0,0,0,0,0],"sum_hessian":[2.1978119E1,9.977518E0,1.2000601E1,7.123168E0,2.85435E0,1.086894E1,1.1316609E0,1.0603459E0,1.7940042E0,9.405151E0,1.463789E0],"tree_param":{"num_deleted":"0","num_feature":"9","num_nodes":"11","size_leaf_vector":"1"}},{"base_weights":[1.2685399E-2,-8.3782417E-1,8.2374644E-1,-5.1153433E-2,-2.6322612E-1,1.7300329E-1,5.7680905E-2,2.6427621E-2,-3.894321E-2,5.9748113E-1,-1.814957E-2,4.6338107E-2,-8.9807436E-4],"categories":[],"categories_nodes":[],"categories_segments":[],"categories_sizes":[],"default_left":[0,0,0,0,0,0,0,0,0,0,0,0,0],"id":24,"left_children":[1,3,5,-1,7,9,-1,-1,-1,11,-1,-1,-1],"loss_changes":[1.5344515E1,8.8724136E-1,2.2429194E0,0E0,2.0428624E0,1.355385E0,0E0,0E0,0E0,6.59147E-1,0E0,0E0,0E0],"parents":[2147483647,0,0,1,1,2,2,4,4,5,5,9,9],"right_children":[2,4,6,-1,8,10,-1,-1,-1,12,-1,-1,-1],"split_conditions":[2.6E2,3.5E0,2.9E2,-5.1153433E-2,1.17E2,1.22E2,5.7680905E-2,2.6427621E-2,-3.894321E-2,2.8E2,-1.814957E-2,4.6338107E-2,-8.9807436E-4],"split_indices":[2,6,2,0,3,3,0,0,0,2,0,0,0],"split_type":[0,0,0,0,0,0,0,0,0,0,0,0,0],"sum_hessian":[2.0243893E1,9.865527E0,1.0378366E1,6.8701625E0,2.995365E0,4.004022E0,6.374344E0,1.1714779E0,1.823887E0,2.1704402E0,1.8335822E0,1.0844038E0,1.0860364E0],"tree_param":{"num_deleted":"0","num_feature":"9","num_nodes":"13","size_leaf_vector":"1"}},{"base_weights":[-2.0298693E-2,-5.0910335E-2,4.8263463E-1,-2.7393937E-1,5.870823E-2,-3.5940465E-2,1.6190077E-1,2.5452066E-2,-1.8199379E-2],"categories":[],"categories_nodes":[],"categories_segments":[],"categories_sizes":[],"default_left":[0,0,0,0,0,0,0,0,0],"id":25,"left_children":[1,-1,3,5,-1,-1,7,-1,-1],"loss_changes":[1.0989335E1,0E0,7.9530582E0,1.6241488E0,0E0,0E0,1.051374E0,0E0,0E0],"parents":[2147483647,0,0,2,2,3,3,6,6],"right_children":[2,-1,4,6,-1,-1,8,-1,-1],"split_conditions":[7.86E1,-5.0910335E-2,5.9E0,1.543E2,5.870823E-2,-3.5940465E-2,2.139E2,2.5452066E-2,-1.8199379E-2],"split_indices":[8,0,1,8,0,0,8,0,0],"split_type":[0,0,0,0,0,0,0,0,0],"sum_hessian":[1.991713E1,6.3309255E0,1.3586204E1,6.776349E0,6.8098545E0,3.0321395E0,3.7442093E0,2.274705E0,1.4695044E0],"tree_param":{"num_deleted":"0","num_feature":"9","num_nodes":"9","size_leaf_vector":"1"}},{"base_weights":[3.2568425E-2,-8.409709E-1,9.471966E-1,-5.228286E-2,6.2603517E-3,5.2597344E-2,3.087559E-3],"categories":[],"categories_nodes":[],"categories_segments":[],"categories_sizes":[],"default_left":[0,0,0,0,0,0,0],"id":26,"left_children":[1,3,5,-1,-1,-1,-1],"loss_changes":[1.6127575E1,2.1766806E0,8.4809303E-1,0E0,0E0,0E0,0E0],"parents":[2147483647,0,0,1,1,2,2],"right_children":[2,4,6,-1,-1,-1,-1],"split_conditions":[2.6E2,3.9E0,2.5E1,-5.228286E-2,6.2603517E-3,5.2597344E-2,3.087559E-3],"split_indices":[2,6,7,0,0,0,0],"split_type":[0,0,0,0,0,0,0],"sum_hessian":[1.818862E1,9.344472E0,8.844148E0,7.643024E0,1.7014481E0,7.7403975E0,1.1037503E0],"tree_param":{"num_deleted":"0","num_feature":"9","num_nodes":"7","size_leaf_vector":"1"}},{"base_weights":[-4.3484423E-2,-8.4466475E-1,8.5025835E-1,-5.1300664E-2,-9.755469E-3,5.234319E-2,-1.7606875E-2],"categories":[],"categories_nodes":[],"categories_segments":[],"categories_sizes":[],"default_left":[0,0,0,0,0,0,0],"id":27,"left_children":[1,3,5,-1,-1,-1,-1],"loss_changes":[1.503729E1,1.1010342E0,2.7210321E0,0E0,0E0,0E0,0E0],"parents":[2147483647,0,0,1,1,2,2],"right_children":[2,4,6,-1,-1,-1,-1],"split_conditions":[2.6E2,1.188E2,1.27E2,-5.1300664E-2,-9.755469E-3,5.234319E-2,-1.7606875E-2],"split_indices":[2,8,3,0,0,0,0],"split_type":[0,0,0,0,0,0,0],"sum_hessian":[1.899738E1,1.0046384E1,8.950995E0,7.4006453E0,2.6457388E0,7.804261E0,1.1467342E0],"tree_param":{"num_deleted":"0","num_feature":"9","num_nodes":"7","size_leaf_vector":"1"}},{"base_weights":[6.556529E-2,-4.9479954E-2,5.041615E-1,-5.1548463E-1,1.0121686E0,-4.2070534E-2,4.1461727E-4,5.7556093E-2,1.6686535E-2],"categories":[],"categories_nodes":[],"categories_segments":[],"categories_sizes":[],"default_left":[0,0,0,0,0,0,0,0,0],"id":28,"left_children":[1,-1,3,5,7,-1,-1,-1,-1],"loss_changes":[9.079156E0,0E0,7.648715E0,9.011651E-1,5.133877E-1,0E0,0E0,0E0,0E0],"parents":[2147483647,0,0,2,2,3,3,4,4],"right_children":[2,-1,4,6,8,-1,-1,-1,-1],"split_conditions":[6.62E1,-4.9479954E-2,2.1E0,1.543E2,6.271E3,-4.2070534E-2,4.1461727E-4,5.7556093E-2,1.6686535E-2],"split_indices":[8,0,1,8,0,0,0,0,0],"split_type":[0,0,0,0,0,0,0,0,0],"sum_hessian":[1.75402E1,4.781263E0,1.2758937E1,4.237973E0,8.520964E0,2.238569E0,1.9994041E0,6.49415E0,2.0268133E0],"tree_param":{"num_deleted":"0","num_feature":"9","num_nodes":"9","size_leaf_vector":"1"}},{"base_weights":[-1.0213827E-1,-9.1657877E-1,5.868872E-1,-4.8738826E-2,-1.563241E-2,-2.6389023E-2,8.084561E-1,1.0330628E0,1.3216497E-1,5.6007218E-2,1.6433438E-2,-2.7872732E-2,3.5619035E-2],"categories":[],"categories_nodes":[],"categories_segments":[],"categories_sizes":[],"default_left":[0,0,0,0,0,0,0,0,0,0,0,0,0],"id":29,"left_children":[1,3,5,-1,-1,-1,7,9,11,-1,-1,-1,-1],"loss_changes":[1.0738508E1,1.7538071E-3,3.0091794E0,0E0,0E0,0E0,1.2484236E0,4.2681217E-2,1.7654984E0,0E0,0E0,0E0,0E0],"parents":[2147483647,0,0,1,1,2,2,6,6,7,7,8,8],"right_children":[2,4,6,-1,-1,-1,8,10,12,-1,-1,-1,-1],"split_conditions":[2.5E2,2.3E2,3.1E0,-4.8738826E-2,-1.563241E-2,-2.6389023E-2,6.271E3,2.25E1,4.1E0,5.6007218E-2,1.6433438E-2,-2.7872732E-2,3.5619035E-2],"split_indices":[2,2,6,0,0,0,0,7,6,0,0,0,0],"split_type":[0,0,0,0,0,0,0,0,0,0,0,0,0],"sum_hessian":[1.7177336E1,7.720872E0,9.456463E0,6.4821644E0,1.2387074E0,1.3388696E0,8.117594E0,5.6977434E0,2.4198503E0,4.545568E0,1.1521753E0,1.1236073E0,1.296243E0],"tree_param":{"num_deleted":"0","num_feature":"9","num_nodes":"13","size_leaf_vector":"1"}},{"base_weights":[-7.675576E-2,-7.252917E-1,6.743396E-1,-9.0484273E-1,6.1282265E-4,8.773246E-1,-1.7690454E-2,-4.8632257E-2,-1.4406319E-2,1.3794156E-2,4.9632158E-2],"categories":[],"categories_nodes":[],"categories_segments":[],"categories_sizes":[],"default_left":[0,0,0,0,0,0,0,0,0,0,0],"id":30,"left_children":[1,3,5,7,-1,9,-1,-1,-1,-1,-1],"loss_changes":[9.00887E0,1.3178573E0,2.109926E0,5.2151203E-2,0E0,2.4551535E-1,0E0,0E0,0E0,0E0,0E0],"parents":[2147483647,0,0,1,1,2,2,3,3,5,5],"right_children":[2,4,6,8,-1,10,-1,-1,-1,-1,-1],"split_conditions":[2.6E2,3.8E0,1.28E2,3.5E0,6.1282265E-4,1.176E2,-1.7690454E-2,-4.8632257E-2,-1.4406319E-2,1.3794156E-2,4.9632158E-2],"split_indices":[2,6,3,6,0,8,0,0,0,0,0],"split_type":[0,0,0,0,0,0,0,0,0,0,0],"sum_hessian":[1.6490376E1,8.867798E0,7.622577E0,6.9492307E0,1.9185672E0,6.4883018E0,1.1342754E0,5.7409315E0,1.2082988E0,1.5896864E0,4.8986154E0],"tree_param":{"num_deleted":"0","num_feature":"9","num_nodes":"11","size_leaf_vector":"1"}},{"base_weights":[-6.426659E-2,-4.3456424E-2,3.269086E-1,6.461049E-1,-4.515698E-2,4.6496723E-2,1.736364E-1,-3.8581327E-1,4.062754E-2,-3.541534E-2,7.7389413E-3],"categories":[],"categories_nodes":[],"categories_segments":[],"categories_sizes":[],"default_left":[0,0,0,0,0,0,0,0,0,0,0],"id":31,"left_children":[1,-1,3,5,-1,-1,7,9,-1,-1,-1],"loss_changes":[5.8823643E0,0E0,5.5668616E0,1.2680702E0,0E0,0E0,2.1829917E0,7.139856E-1,0E0,0E0,0E0],"parents":[2147483647,0,0,2,2,3,3,6,6,7,7],"right_children":[2,-1,4,6,-1,-1,8,10,-1,-1,-1],"split_conditions":[3.1E0,-4.3456424E-2,2.86E1,2.51E1,-4.515698E-2,4.6496723E-2,6.53E1,3.9E0,4.062754E-2,-3.541534E-2,7.7389413E-3],"split_indices":[6,0,4,1,0,0,1,6,0,0,0],"split_type":[0,0,0,0,0,0,0,0,0,0,0],"sum_hessian":[1.6781105E1,5.0888042E0,1.1692301E1,9.660216E0,2.0320847E0,5.429978E0,4.2302384E0,2.4665804E0,1.763658E0,1.3506181E0,1.1159621E0],"tree_param":{"num_deleted":"0","num_feature":"9","num_nodes":"11","size_leaf_vector":"1"}},{"base_weights":[2.0957435E-2,-8.236635E-1,6.371732E-1,-4.804432E-2,-4.80869E-3,-2.6562823E-2,8.420917E-1,1.0031874E0,-1.5250908E-3,1.6443022E-2,5.6285955E-2],"categories":[],"categories_nodes":[],"categories_segments":[],"categories_sizes":[],"default_left":[0,0,0,0,0,0,0,0,0,0,0],"id":32,"left_children":[1,3,5,-1,-1,-1,7,9,-1,-1,-1],"loss_changes":[1.0561141E1,7.631459E-1,3.2518306E0,0E0,0E0,0E0,1.4858022E0,3.5428524E-1,0E0,0E0,0E0],"parents":[2147483647,0,0,1,1,2,2,6,6,7,7],"right_children":[2,4,6,-1,-1,-1,8,10,-1,-1,-1],"split_conditions":[2.5E2,2.3E2,3.1E0,-4.804432E-2,-4.80869E-3,-2.6562823E-2,7.371E3,1.176E2,-1.5250908E-3,1.6443022E-2,5.6285955E-2],"split_indices":[2,2,6,0,0,0,0,8,0,0,0],"split_type":[0,0,0,0,0,0,0,0,0,0,0],"sum_hessian":[1.8283245E1,7.5703025E0,1.0712942E1,6.0990443E0,1.4712583E0,1.3608658E0,9.352077E0,7.768261E0,1.5838156E0,1.760977E0,6.007284E0],"tree_param":{"num_deleted":"0","num_feature":"9","num_nodes":"11","size_leaf_vector":"1"}},{"base_weights":[1.0300962E-3,-4.9677808E-2,4.560551E-1,-4.4254848E-1,8.2379407E-1,-1.3611763E-3,-3.9422464E-2,9.229524E-1,2.726993E-4,3.8612902E-1,5.2589204E-2,6.468117E-3,2.3011021E-2],"categories":[],"categories_nodes":[],"categories_segments":[],"categories_sizes":[],"default_left":[0,0,0,0,0,0,0,0,0,0,0,0,0],"id":33,"left_children":[1,-1,3,5,7,-1,-1,9,-1,11,-1,-1,-1],"loss_changes":[8.657909E0,0E0,4.701502E0,6.195154E-1,7.7903366E-1,0E0,0E0,1.8950081E-1,0E0,2.2346675E-3,0E0,0E0,0E0],"parents":[2147483647,0,0,2,2,3,3,4,4,7,7,9,9],"right_children":[2,-1,4,6,8,-1,-1,10,-1,12,-1,-1,-1],"split_conditions":[7.86E1,-4.9677808E-2,8.8E1,1.21E2,2.5E1,-1.3611763E-3,-3.9422464E-2,5.9E0,2.726993E-4,9E1,5.2589204E-2,6.468117E-3,2.3011021E-2],"split_indices":[8,0,5,3,7,0,0,1,0,5,0,0,0],"split_type":[0,0,0,0,0,0,0,0,0,0,0,0,0],"sum_hessian":[1.7129671E1,5.0054092E0,1.2124262E1,3.4617443E0,8.662518E0,2.0631783E0,1.3985661E0,7.6123E0,1.0502181E0,2.2469077E0,5.365392E0,1.1180936E0,1.128814E0],"tree_param":{"num_deleted":"0","num_feature":"9","num_nodes":"13","size_leaf_vector":"1"}},{"base_weights":[-3.5340577E-2,-4.6856236E-2,4.8499557E-1,-2.6671857E-2,7.222985E-1,4.537575E-2,9.081141E-2,-2.836262E-2,3.3515025E-2],"categories":[],"categories_nodes":[],"categories_segments":[],"categories_sizes":[],"default_left":[0,0,0,0,0,0,0,0,0],"id":34,"left_children":[1,-1,3,-1,5,-1,7,-1,-1],"loss_changes":[8.268726E0,0E0,3.0966756E0,0E0,1.0314951E0,0E0,1.6276056E0,0E0,0E0],"parents":[2147483647,0,0,2,2,4,4,6,6],"right_children":[2,-1,4,-1,6,-1,8,-1,-1],"split_conditions":[2.3E2,-4.6856236E-2,3.1E0,-2.6671857E-2,6.271E3,4.537575E-2,4.1E0,-2.836262E-2,3.3515025E-2],"split_indices":[2,0,6,0,0,0,6,0,0],"split_type":[0,0,0,0,0,0,0,0,0],"sum_hessian":[1.5653261E1,5.4342585E0,1.0219003E1,1.6953129E0,8.52369E0,6.252663E0,2.2710268E0,1.0733051E0,1.1977217E0],"tree_param":{"num_deleted":"0","num_feature":"9","num_nodes":"9","size_leaf_vector":"1"}},{"base_weights":[-2.8925918E-2,-4.5007776E-2,4.1639283E-1,-2.8337923E-1,7.7788275E-1,6.341412E-3,-3.183285E-2,4.5512363E-2,3.3684876E-3],"categories":[],"categories_nodes":[],"categories_segments":[],"categories_sizes":[],"default_left":[0,0,0,0,0,0,0,0,0],"id":35,"left_children":[1,-1,3,5,7,-1,-1,-1,-1],"loss_changes":[6.789649E0,0E0,3.161162E0,7.608131E-1,6.8469715E-1,0E0,0E0,0E0,0E0],"parents":[2147483647,0,0,2,2,3,3,4,4],"right_children":[2,-1,4,6,8,-1,-1,-1,-1],"split_conditions":[7.86E1,-4.5007776E-2,2.1E0,1.21E2,1.25E2,6.341412E-3,-3.183285E-2,4.5512363E-2,3.3684876E-3],"split_indices":[8,0,1,3,3,0,0,0,0],"split_type":[0,0,0,0,0,0,0,0,0],"sum_hessian":[1.5534139E1,4.9089017E0,1.0625237E1,3.6927986E0,6.932439E0,2.0053213E0,1.6874774E0,5.606809E0,1.3256294E0],"tree_param":{"num_deleted":"0","num_feature":"9","num_nodes":"9","size_leaf_vector":"1"}},{"base_weights":[3.6558274E-2,-4.4828355E-2,4.1774872E-1,-3.4801368E-2,7.1826077E-1,9.488417E-1,8.754429E-2,1.0969056E-2,5.4466393E-2,-4.3391135E-2,4.0188972E-2],"categories":[],"categories_nodes":[],"categories_segments":[],"categories_sizes":[],"default_left":[0,0,0,0,0,0,0,0,0,0,0],"id":36,"left_children":[1,-1,3,-1,5,7,9,-1,-1,-1,-1],"loss_changes":[6.6056705E0,0E0,4.8910427E0,0E0,1.4910693E0,5.628767E-1,3.4341621E0,0E0,0E0,0E0,0E0],"parents":[2147483647,0,0,2,2,4,4,5,5,6,6],"right_children":[2,-1,4,-1,6,8,10,-1,-1,-1,-1],"split_conditions":[2.2E2,-4.4828355E-2,3.1E0,-3.4801368E-2,6.271E3,2.5E2,2.9E2,1.0969056E-2,5.4466393E-2,-4.3391135E-2,4.0188972E-2],"split_indices":[2,0,6,0,0,2,2,0,0,0,0],"split_type":[0,0,0,0,0,0,0,0,0,0,0],"sum_hessian":[1.6518017E1,4.3985877E0,1.2119429E1,2.2955148E0,9.823914E0,6.824564E0,2.9993496E0,1.5157528E0,5.308811E0,1.1944542E0,1.8048954E0],"tree_param":{"num_deleted":"0","num_feature":"9","num_nodes":"11","size_leaf_vector":"1"}},{"base_weights":[-4.55009E-2,-6.577211E-1,5.634838E-1,2.0912945E-1,-4.868162E-2,-2.0575069E-2,7.688425E-1,-9.877087E-3,2.6056563E-2,1.1616788E-2,4.820358E-2],"categories":[],"categories_nodes":[],"categories_segments":[],"categories_sizes":[],"default_left":[0,0,0,0,0,0,0,0,0,0,0],"id":37,"left_children":[1,3,5,7,-1,-1,9,-1,-1,-1,-1],"loss_changes":[6.2952337E0,2.5000424E0,2.0192747E0,4.9158442E-1,0E0,0E0,5.483713E-1,0E0,0E0,0E0,0E0],"parents":[2147483647,0,0,1,1,2,2,3,3,6,6],"right_children":[2,4,6,8,-1,-1,10,-1,-1,-1,-1],"split_conditions":[2.6E2,7.8E0,3.1E0,5E-1,-4.868162E-2,-2.0575069E-2,2.9E2,-9.877087E-3,2.6056563E-2,1.1616788E-2,4.820358E-2],"split_indices":[2,7,6,1,0,0,2,0,0,0,0],"split_type":[0,0,0,0,0,0,0,0,0,0,0],"sum_hessian":[1.4890822E1,7.385776E0,7.505046E0,2.062995E0,5.322781E0,1.1310973E0,6.3739486E0,1.0548862E0,1.0081087E0,2.284902E0,4.0890465E0],"tree_param":{"num_deleted":"0","num_feature":"9","num_nodes":"11","size_leaf_vector":"1"}},{"base_weights":[4.2271826E-2,-7.651478E-1,6.411093E-1,-4.530346E-2,-6.3209566E-3,7.9218817E-1,-3.1901803E-3,1.0842382E-2,9.155389E-1,4.975851E-2,1.2196924E-2],"categories":[],"categories_nodes":[],"categories_segments":[],"categories_sizes":[],"default_left":[0,0,0,0,0,0,0,0,0,0,0],"id":38,"left_children":[1,3,5,-1,-1,7,-1,-1,9,-1,-1],"loss_changes":[8.272075E0,5.4336214E-1,1.0925703E0,0E0,0E0,3.785944E-1,0E0,0E0,9.877014E-2,0E0,0E0],"parents":[2147483647,0,0,1,1,2,2,5,5,8,8],"right_children":[2,4,6,-1,-1,8,-1,-1,10,-1,-1],"split_conditions":[2.5E2,2.3E2,1.25E2,-4.530346E-2,-6.3209566E-3,1.176E2,-3.1901803E-3,1.0842382E-2,7.371E3,4.975851E-2,1.2196924E-2],"split_indices":[2,2,3,0,0,8,0,0,0,0,0],"split_type":[0,0,0,0,0,0,0,0,0,0,0],"sum_hessian":[1.5093732E1,6.3092175E0,8.784514E0,4.825931E0,1.4832864E0,7.1321273E0,1.6523873E0,1.7460519E0,5.3860755E0,4.384427E0,1.0016481E0],"tree_param":{"num_deleted":"0","num_feature":"9","num_nodes":"11","size_leaf_vector":"1"}},{"base_weights":[7.395783E-2,-4.402808E-2,5.4565394E-1,5.402487E-2,-3.2799485E-1,-5.6279516E-1,1.0208145E-2,-6.3968464E-3,-3.4815546E-2],"categories":[],"categories_nodes":[],"categories_segments":[],"categories_sizes":[],"default_left":[0,0,0,0,0,0,0,0,0],"id":39,"left_children":[1,-1,3,-1,5,7,-1,-1,-1],"loss_changes":[7.5900707E0,0E0,5.581001E0,0E0,7.414778E-1,1.2838662E-1,0E0,0E0,0E0],"parents":[2147483647,0,0,2,2,4,4,5,5],"right_children":[2,-1,4,-1,6,8,-1,-1,-1],"split_conditions":[7.86E1,-4.402808E-2,2.8E1,5.402487E-2,1.886E2,2.82E1,1.0208145E-2,-6.3968464E-3,-3.4815546E-2],"split_indices":[8,0,4,0,8,4,0,0,0],"split_type":[0,0,0,0,0,0,0,0,0],"sum_hessian":[1.4790556E1,4.605042E0,1.01855135E1,6.170934E0,4.0145793E0,2.7455895E0,1.2689898E0,1.1049628E0,1.6406268E0],"tree_param":{"num_deleted":"0","num_feature":"9","num_nodes":"9","size_leaf_vector":"1"}},{"base_weights":[-2.1450978E-2,-4.3891024E-2,4.1140464E-1,6.208611E-1,-1.7197398E-2,-1.670157E-2,8.055956E-1,4.792616E-2,9.304736E-3],"categories":[],"categories_nodes":[],"categories_segments":[],"categories_sizes":[],"default_left":[0,0,0,0,0,0,0,0,0],"id":40,"left_children":[1,-1,3,5,-1,-1,7,-1,-1],"loss_changes":[5.895449E0,0E0,1.8903142E0,1.7956429E0,0E0,0E0,5.3634644E-1,0E0,0E0],"parents":[2147483647,0,0,2,2,3,3,6,6],"right_children":[2,-1,4,6,-1,-1,8,-1,-1],"split_conditions":[2.3E2,-4.3891024E-2,1.25E2,9.03E1,-1.7197398E-2,-1.670157E-2,6.271E3,4.792616E-2,9.304736E-3],"split_indices":[2,0,3,8,0,0,0,0,0],"split_type":[0,0,0,0,0,0,0,0,0],"sum_hessian":[1.3929979E1,4.3318305E0,9.598149E0,7.6538234E0,1.9443256E0,1.1096859E0,6.5441375E0,4.8096056E0,1.7345318E0],"tree_param":{"num_deleted":"0","num_feature":"9","num_nodes":"9","size_leaf_vector":"1"}},{"base_weights":[1.1696043E-1,-4.018545E-2,5.8024615E-1,-2.6036685E-2,8.5280937E-1,7.961518E-3,5.1526524E-2],"categories":[],"categories_nodes":[],"categories_segments":[],"categories_sizes":[],"default_left":[0,0,0,0,0,0,0],"id":41,"left_children":[1,-1,3,-1,5,-1,-1],"loss_changes":[7.007746E0,0E0,3.6799421E0,0E0,9.480438E-1,0E0,0E0],"parents":[2147483647,0,0,2,2,4,4],"right_children":[2,-1,4,-1,6,-1,-1],"split_conditions":[8.65E1,-4.018545E-2,3.1E0,-2.6036685E-2,2.1E0,7.961518E-3,5.1526524E-2],"split_indices":[8,0,6,0,1,0,0],"split_type":[0,0,0,0,0,0,0],"sum_hessian":[1.4336205E1,4.5531354E0,9.783069E0,1.7606544E0,8.022414E0,2.0230725E0,5.999342E0],"tree_param":{"num_deleted":"0","num_feature":"9","num_nodes":"7","size_leaf_vector":"1"}},{"base_weights":[8.693811E-2,-4.099939E-2,4.5037997E-1,-2.8921106E-1,8.190651E-1,-3.658198E-2,1.3553947E-2,5.2467328E-2,2.244651E-3],"categories":[],"categories_nodes":[],"categories_segments":[],"categories_sizes":[],"default_left":[0,0,0,0,0,0,0,0,0],"id":42,"left_children":[1,-1,3,5,7,-1,-1,-1,-1],"loss_changes":[5.379519E0,0E0,3.3718479E0,1.3296213E0,1.3672237E0,0E0,0E0,0E0,0E0],"parents":[2147483647,0,0,2,2,3,3,4,4],"right_children":[2,-1,4,6,8,-1,-1,-1,-1],"split_conditions":[7.86E1,-4.099939E-2,2.1E0,2.5E2,6.271E3,-3.658198E-2,1.3553947E-2,5.2467328E-2,2.244651E-3],"split_indices":[8,0,1,2,0,0,0,0,0],"split_type":[0,0,0,0,0,0,0,0,0],"sum_hessian":[1.4200206E1,3.7031822E0,1.0497024E1,3.563706E0,6.9333177E0,1.8204105E0,1.7432954E0,5.0698276E0,1.86349E0],"tree_param":{"num_deleted":"0","num_feature":"9","num_nodes":"9","size_leaf_vector":"1"}},{"base_weights":[7.654227E-2,-4.1697692E-2,4.340698E-1,-2.7190533E-1,7.315286E-1,-3.1701647E-2,9.910959E-3,9.290887E-1,3.2368642E-3,1.4787368E-2,5.1370796E-2],"categories":[],"categories_nodes":[],"categories_segments":[],"categories_sizes":[],"default_left":[0,0,0,0,0,0,0,0,0,0,0],"id":43,"left_children":[1,-1,3,5,7,-1,-1,9,-1,-1,-1],"loss_changes":[4.523476E0,0E0,2.2646644E0,7.4624074E-1,8.872516E-1,0E0,0E0,3.698492E-2,0E0,0E0,0E0],"parents":[2147483647,0,0,2,2,3,3,4,4,7,7],"right_children":[2,-1,4,6,8,-1,-1,10,-1,-1,-1],"split_conditions":[7.86E1,-4.1697692E-2,8.8E1,2.5E2,6.271E3,-3.1701647E-2,9.910959E-3,1.091E2,3.2368642E-3,1.4787368E-2,5.1370796E-2],"split_indices":[8,0,5,2,0,0,0,8,0,0,0],"split_type":[0,0,0,0,0,0,0,0,0,0,0],"sum_hessian":[1.17838125E1,2.9467993E0,8.837013E0,2.6451175E0,6.191896E0,1.2972345E0,1.3478829E0,4.473186E0,1.7187097E0,1.1397375E0,3.3334486E0],"tree_param":{"num_deleted":"0","num_feature":"9","num_nodes":"11","size_leaf_vector":"1"}},{"base_weights":[6.2477584E-3,-4.620232E-2,4.2772794E-1,-2.8837541E-2,6.2580055E-1,2.6821554E-1,4.5639943E-2,7.082484E-1,-1.4860106E-2,1.1383752E-2,4.156502E-2],"categories":[],"categories_nodes":[],"categories_segments":[],"categories_sizes":[],"default_left":[0,0,0,0,0,0,0,0,0,0,0],"id":44,"left_children":[1,-1,3,-1,5,7,-1,9,-1,-1,-1],"loss_changes":[5.6840935E0,0E0,2.343844E0,0E0,6.5874076E-1,1.5381649E0,0E0,5.6705475E-3,0E0,0E0,0E0],"parents":[2147483647,0,0,2,2,4,4,5,5,7,7],"right_children":[2,-1,4,-1,6,8,-1,10,-1,-1,-1],"split_conditions":[3.1E0,-4.620232E-2,2.2E2,-2.8837541E-2,2.9E2,8E0,4.5639943E-2,2.1E0,-1.4860106E-2,1.1383752E-2,4.156502E-2],"split_indices":[6,0,2,0,2,7,0,1,0,0,0],"split_type":[0,0,0,0,0,0,0,0,0,0,0],"sum_hessian":[1.2488511E1,3.5221071E0,8.966405E0,1.1619633E0,7.804441E0,4.3362517E0,3.4681892E0,2.2964458E0,2.0398061E0,1.049176E0,1.2472697E0],"tree_param":{"num_deleted":"0","num_feature":"9","num_nodes":"11","size_leaf_vector":"1"}},{"base_weights":[2.4233092E-2,-4.334233E-2,3.3595568E-1,5.8342206E-1,-3.569739E-2,-1.6514951E-2,8.6229795E-1,1.5824085E-2,4.9768377E-2],"categories":[],"categories_nodes":[],"categories_segments":[],"categories_sizes":[],"default_left":[0,0,0,0,0,0,0,0,0],"id":45,"left_children":[1,-1,3,5,-1,-1,7,-1,-1],"loss_changes":[4.315448E0,0E0,3.3923743E0,2.7869027E0,0E0,0E0,2.515154E-1,0E0,0E0],"parents":[2147483647,0,0,2,2,3,3,6,6],"right_children":[2,-1,4,6,-1,-1,8,-1,-1],"split_conditions":[7.51E1,-4.334233E-2,2.88E1,3.1E0,-3.569739E-2,-1.6514951E-2,1.188E2,1.5824085E-2,4.9768377E-2],"split_indices":[8,0,4,6,0,0,8,0,0],"split_type":[0,0,0,0,0,0,0,0,0],"sum_hessian":[1.3487637E1,3.0339792E0,1.0453657E1,8.819237E0,1.6344202E0,2.0191643E0,6.8000727E0,1.9950837E0,4.804989E0],"tree_param":{"num_deleted":"0","num_feature":"9","num_nodes":"9","size_leaf_vector":"1"}},{"base_weights":[2.5538584E-2,-6.471261E-1,3.646024E-1,-4.0979877E-2,-4.043772E-3,6.626598E-1,-3.568528E-2,4.350576E-2,1.7843899E-1,-2.3674358E-2,3.513074E-2],"categories":[],"categories_nodes":[],"categories_segments":[],"categories_sizes":[],"default_left":[0,0,0,0,0,0,0,0,0,0,0],"id":46,"left_children":[1,3,5,-1,-1,7,-1,-1,9,-1,-1],"loss_changes":[3.551834E0,4.447527E-1,3.7852054E0,0E0,0E0,7.078991E-1,0E0,0E0,1.6432469E0,0E0,0E0],"parents":[2147483647,0,0,1,1,2,2,5,5,8,8],"right_children":[2,4,6,-1,-1,8,-1,-1,10,-1,-1],"split_conditions":[3.1E0,2.6E2,2.86E1,-4.0979877E-2,-4.043772E-3,3.38E1,-3.568528E-2,4.350576E-2,2.9E2,-2.3674358E-2,3.513074E-2],"split_indices":[6,2,4,0,0,1,0,0,2,0,0],"split_type":[0,0,0,0,0,0,0,0,0,0,0],"sum_hessian":[1.3538519E1,4.232716E0,9.305803E0,2.9015396E0,1.3311765E0,7.5925837E0,1.7132194E0,4.7574177E0,2.835166E0,1.3067014E0,1.5284646E0],"tree_param":{"num_deleted":"0","num_feature":"9","num_nodes":"11","size_leaf_vector":"1"}},{"base_weights":[-5.114118E-2,-6.923808E-1,4.3315217E-1,-4.2202916E-2,-8.682018E-3,8.1864405E-1,-2.644858E-1,1.3610757E-2,4.9888737E-2,-4.2415034E-2,3.0749872E-2],"categories":[],"categories_nodes":[],"categories_segments":[],"categories_sizes":[],"default_left":[0,0,0,0,0,0,0,0,0,0,0],"id":47,"left_children":[1,3,5,-1,-1,7,9,-1,-1,-1,-1],"loss_changes":[4.439382E0,3.3498883E-1,2.424277E0,0E0,0E0,2.698505E-1,2.4099596E0,0E0,0E0,0E0,0E0],"parents":[2147483647,0,0,1,1,2,2,5,5,6,6],"right_children":[2,4,6,-1,-1,8,10,-1,-1,-1,-1],"split_conditions":[2.5E2,1.15E2,6.271E3,-4.2202916E-2,-8.682018E-3,3.216E3,3E2,1.3610757E-2,4.9888737E-2,-4.2415034E-2,3.0749872E-2],"split_indices":[2,8,0,0,0,0,2,0,0,0,0],"split_type":[0,0,0,0,0,0,0,0,0,0,0],"sum_hessian":[1.2329581E1,5.1202826E0,7.2092986E0,3.4766073E0,1.6436756E0,4.531751E0,2.677548E0,1.740893E0,2.790858E0,1.6305912E0,1.0469567E0],"tree_param":{"num_deleted":"0","num_feature":"9","num_nodes":"11","size_leaf_vector":"1"}},{"base_weights":[-5.7953086E-2,-3.5082083E-2,2.9557496E-1,4.182597E-2,-2.143422E-1,-5.0548714E-1,2.3237748E-2,-1.4714E-3,-4.1401397E-2],"categories":[],"categories_nodes":[],"categories_segments":[],"categories_sizes":[],"default_left":[0,0,0,0,0,0,0,0,0],"id":48,"left_children":[1,-1,3,-1,5,7,-1,-1,-1],"loss_changes":[2.9858773E0,0E0,2.5473204E0,0E0,1.2660536E0,6.096742E-1,0E0,0E0,0E0],"parents":[2147483647,0,0,2,2,4,4,5,5],"right_children":[2,-1,4,-1,6,8,-1,-1,-1],"split_conditions":[9.03E1,-3.5082083E-2,2.8E1,4.182597E-2,4.1E0,3.578E3,2.3237748E-2,-1.4714E-3,-4.1401397E-2],"split_indices":[8,0,4,0,6,0,0,0,0],"split_type":[0,0,0,0,0,0,0,0,0],"sum_hessian":[1.1209816E1,3.624961E0,7.5848556E0,3.3696597E0,4.2151957E0,3.1292577E0,1.085938E0,1.7045859E0,1.4246718E0],"tree_param":{"num_deleted":"0","num_feature":"9","num_nodes":"9","size_leaf_vector":"1"}},{"base_weights":[-7.43721E-2,-4.1375645E-2,2.776235E-1,-2.737777E-2,5.4277503E-1,-2.296671E-3,7.014069E-1,3.6029574E-3,4.6488505E-2],"categories":[],"categories_nodes":[],"categories_segments":[],"categories_sizes":[],"default_left":[0,0,0,0,0,0,0,0,0],"id":49,"left_children":[1,-1,3,-1,5,-1,7,-1,-1],"loss_changes":[3.6746564E0,0E0,2.3986506E0,0E0,7.579417E-1,0E0,8.21625E-1,0E0,0E0],"parents":[2147483647,0,0,2,2,4,4,6,6],"right_children":[2,-1,4,-1,6,-1,8,-1,-1],"split_conditions":[2.3E2,-4.1375645E-2,3.1E0,-2.737777E-2,8.9E1,-2.296671E-3,3.6E0,3.6029574E-3,4.6488505E-2],"split_indices":[2,0,6,0,5,0,6,0,0],"split_type":[0,0,0,0,0,0,0,0,0],"sum_hessian":[1.1994683E1,3.3901322E0,8.60455E0,1.8334862E0,6.7710643E0,1.5880384E0,5.183026E0,1.7302269E0,3.452799E0],"tree_param":{"num_deleted":"0","num_feature":"9","num_nodes":"9","size_leaf_vector":"1"}},{"base_weights":[-7.957905E-3,-4.017465E-2,3.1367767E-1,-1.9241191E-2,5.651463E-1,2.256518E-1,4.2541835E-2,6.1971676E-1,-2.6075676E-2,4.11027E-2,6.606678E-3],"categories":[],"categories_nodes":[],"categories_segments":[],"categories_sizes":[],"default_left":[0,0,0,0,0,0,0,0,0,0,0],"id":50,"left_children":[1,-1,3,-1,5,7,-1,9,-1,-1,-1],"loss_changes":[3.6251159E0,0E0,1.9927129E0,0E0,5.680549E-1,1.7782419E0,0E0,2.556616E-1,0E0,0E0,0E0],"parents":[2147483647,0,0,2,2,4,4,5,5,7,7],"right_children":[2,-1,4,-1,6,8,-1,10,-1,-1,-1],"split_conditions":[2.2E2,-4.017465E-2,3.1E0,-1.9241191E-2,2.9E2,9.3E1,4.2541835E-2,3.9E0,-2.6075676E-2,4.11027E-2,6.606678E-3],"split_indices":[2,0,6,0,2,5,0,6,0,0,0],"split_type":[0,0,0,0,0,0,0,0,0,0,0],"sum_hessian":[1.2182658E1,3.0760913E0,9.106566E0,2.2702408E0,6.836326E0,3.9418972E0,2.8944287E0,2.692443E0,1.2494543E0,1.4180176E0,1.2744253E0],"tree_param":{"num_deleted":"0","num_feature":"9","num_nodes":"11","size_leaf_vector":"1"}},{"base_weights":[1.02451235E-1,-3.765529E-2,3.850425E-1,-3.0393085E-1,6.1424655E-1,9.765535E-3,-3.3308174E-2,4.0684715E-2,1.7949648E-1,-1.9345956E-2,2.9151931E-2],"categories":[],"categories_nodes":[],"categories_segments":[],"categories_sizes":[],"default_left":[0,0,0,0,0,0,0,0,0,0,0],"id":51,"left_children":[1,-1,3,5,7,-1,-1,-1,9,-1,-1],"loss_changes":[3.2082388E0,0E0,1.7239991E0,6.905607E-1,5.160525E-1,0E0,0E0,0E0,1.0677477E0,0E0,0E0],"parents":[2147483647,0,0,2,2,3,3,4,4,8,8],"right_children":[2,-1,4,6,8,-1,-1,-1,10,-1,-1],"split_conditions":[7.51E1,-3.765529E-2,3.1E0,1.21E2,3.578E3,9.765535E-3,-3.3308174E-2,4.0684715E-2,4.1E0,-1.9345956E-2,2.9151931E-2],"split_indices":[8,0,6,3,0,0,0,0,6,0,0],"split_type":[0,0,0,0,0,0,0,0,0,0,0],"sum_hessian":[1.1070256E1,2.3352344E0,8.735022E0,2.099132E0,6.6358895E0,1.076406E0,1.0227259E0,3.951463E0,2.6844268E0,1.1339695E0,1.5504574E0],"tree_param":{"num_deleted":"0","num_feature":"9","num_nodes":"11","size_leaf_vector":"1"}},{"base_weights":[2.0273421E-2,2.6560247E-1,-4.1099403E-2,-2.029166E-1,3.897595E-2,-2.1628473E-2,1.1300384E-1,2.382154E-2,-1.646954E-2],"categories":[],"categories_nodes":[],"categories_segments":[],"categories_sizes":[],"default_left":[0,0,0,0,0,0,0,0,0],"id":52,"left_children":[1,3,-1,5,-1,-1,7,-1,-1],"loss_changes":[2.761997E0,2.635602E0,0E0,4.969467E-1,0E0,0E0,7.0237035E-1,0E0,0E0],"parents":[2147483647,0,0,1,1,3,3,6,6],"right_children":[2,4,-1,6,-1,-1,8,-1,-1],"split_conditions":[2.89E1,3.6E0,-4.1099403E-2,3.1E0,3.897595E-2,-2.1628473E-2,9.2E1,2.382154E-2,-1.646954E-2],"split_indices":[4,6,0,6,0,0,5,0,0],"split_type":[0,0,0,0,0,0,0,0,0],"sum_hessian":[1.1310218E1,9.289176E0,2.0210419E0,5.1757703E0,4.1134057E0,2.7832787E0,2.3924913E0,1.2712356E0,1.1212556E0],"tree_param":{"num_deleted":"0","num_feature":"9","num_nodes":"9","size_leaf_vector":"1"}},{"base_weights":[-8.1022575E-2,-4.049841E-1,4.0863104E-2,-4.2047057E-2,-1.0868458E-1,2.2313704E-1,-3.9166477E-2,-2.8300717E-2,7.031208E-1,6.741994E-3,4.4248294E-2],"categories":[],"categories_nodes":[],"categories_segments":[],"categories_sizes":[],"default_left":[0,0,0,0,0,0,0,0,0,0,0],"id":53,"left_children":[1,3,-1,-1,5,7,-1,-1,9,-1,-1],"loss_changes":[3.905683E0,1.1611478E0,0E0,0E0,1.7242254E0,2.4501219E0,0E0,0E0,2.74886E-1,0E0,0E0],"parents":[2147483647,0,0,1,1,4,4,5,5,8,8],"right_children":[2,4,-1,-1,6,8,-1,-1,10,-1,-1],"split_conditions":[3E2,7.86E1,4.0863104E-2,-4.2047057E-2,6.271E3,8.8E1,-3.9166477E-2,-2.8300717E-2,1.091E2,6.741994E-3,4.4248294E-2],"split_indices":[2,8,0,0,0,5,0,0,8,0,0],"split_type":[0,0,0,0,0,0,0,0,0,0,0],"sum_hessian":[1.1283803E1,8.696585E0,2.5872183E0,2.7751915E0,5.9213934E0,4.4177785E0,1.5036153E0,1.6030061E0,2.8147721E0,1.1045306E0,1.7102417E0],"tree_param":{"num_deleted":"0","num_feature":"9","num_nodes":"11","size_leaf_vector":"1"}},{"base_weights":[-3.2514524E-2,-4.0275555E-2,3.7222984E-1,-2.0407638E-2,5.9974605E-1,-1.0755704E-3,7.39338E-1,1.1761568E-2,4.3568514E-2],"categories":[],"categories_nodes":[],"categories_segments":[],"categories_sizes":[],"default_left":[0,0,0,0,0,0,0,0,0],"id":54,"left_children":[1,-1,3,-1,5,-1,7,-1,-1],"loss_changes":[3.7633572E0,0E0,1.6562742E0,0E0,5.848241E-1,0E0,1.534369E-1,0E0,0E0],"parents":[2147483647,0,0,2,2,4,4,6,6],"right_children":[2,-1,4,-1,6,-1,8,-1,-1],"split_conditions":[2.25E2,-4.0275555E-2,3.1E0,-2.0407638E-2,8.9E1,-1.0755704E-3,3.6E0,1.1761568E-2,4.3568514E-2],"split_indices":[2,0,6,0,5,0,6,0,0],"split_type":[0,0,0,0,0,0,0,0,0],"sum_hessian":[1.0070304E1,3.1204925E0,6.949811E0,1.3895818E0,5.5602293E0,1.1753231E0,4.3849063E0,1.4874308E0,2.8974752E0],"tree_param":{"num_deleted":"0","num_feature":"9","num_nodes":"9","size_leaf_vector":"1"}},{"base_weights":[-5.532721E-2,-3.6610585E-1,3.4719773E-2,1.5612072E-2,-5.7918626E-1,-3.9789904E-2,-1.3497625E-1,-1.8521713E-2,6.610159E-3],"categories":[],"categories_nodes":[],"categories_segments":[],"categories_sizes":[],"default_left":[0,0,0,0,0,0,0,0,0],"id":55,"left_children":[1,3,-1,-1,5,-1,7,-1,-1],"loss_changes":[3.1897817E0,1.5629213E0,0E0,0E0,6.2640977E-1,0E0,2.8199795E-1,0E0,0E0],"parents":[2147483647,0,0,1,1,4,4,6,6],"right_children":[2,4,-1,-1,6,-1,8,-1,-1],"split_conditions":[2.9E2,7.8E0,3.4719773E-2,1.5612072E-2,2.6E2,-3.9789904E-2,8.9E1,-1.8521713E-2,6.610159E-3],"split_indices":[2,7,0,0,2,0,5,0,0],"split_type":[0,0,0,0,0,0,0,0,0],"sum_hessian":[1.1599088E1,8.56172E0,3.037367E0,1.935293E0,6.626427E0,3.9222937E0,2.7041333E0,1.2319695E0,1.4721639E0],"tree_param":{"num_deleted":"0","num_feature":"9","num_nodes":"9","size_leaf_vector":"1"}},{"base_weights":[-6.3797287E-3,-3.8872935E-2,3.2959726E-1,5.197917E-1,-2.6777381E-2,7.03849E-1,-4.1116658E-3,4.1603062E-2,8.509352E-3],"categories":[],"categories_nodes":[],"categories_segments":[],"categories_sizes":[],"default_left":[0,0,0,0,0,0,0,0,0],"id":56,"left_children":[1,-1,3,5,-1,7,-1,-1,-1],"loss_changes":[3.2186844E0,0E0,1.7044891E0,9.0139604E-1,0E0,2.6445532E-1,0E0,0E0,0E0],"parents":[2147483647,0,0,2,2,3,3,5,5],"right_children":[2,-1,4,6,-1,8,-1,-1,-1],"split_conditions":[2.3E2,-3.8872935E-2,1.27E2,2.25E1,-2.6777381E-2,1.21E2,-4.1116658E-3,4.1603062E-2,8.509352E-3],"split_indices":[2,0,3,7,0,3,0,0,0],"split_type":[0,0,0,0,0,0,0,0,0],"sum_hessian":[1.0435118E1,2.7681327E0,7.666985E0,6.612476E0,1.0545092E0,4.934664E0,1.6778121E0,3.5279262E0,1.4067374E0],"tree_param":{"num_deleted":"0","num_feature":"9","num_nodes":"9","size_leaf_vector":"1"}},{"base_weights":[-1.2898414E-1,-6.89661E-1,3.9979163E-1,-4.425618E-2,1.4678495E-3,6.0418427E-1,-7.4544013E-3,1.7292416E-3,3.7266664E-2],"categories":[],"categories_nodes":[],"categories_segments":[],"categories_sizes":[],"default_left":[0,0,0,0,0,0,0,0,0],"id":57,"left_children":[1,3,5,-1,-1,7,-1,-1,-1],"loss_changes":[3.6559994E0,8.55299E-1,8.1938136E-1,0E0,0E0,3.7097216E-1,0E0,0E0,0E0],"parents":[2147483647,0,0,1,1,2,2,5,5],"right_children":[2,4,6,-1,-1,8,-1,-1,-1],"split_conditions":[2.6E2,3.8E0,1.25E2,-4.425618E-2,1.4678495E-3,1.176E2,-7.4544013E-3,1.7292416E-3,3.7266664E-2],"split_indices":[2,6,3,0,0,8,0,0,0],"split_type":[0,0,0,0,0,0,0,0,0],"sum_hessian":[1.0401665E1,4.9008675E0,5.5007973E0,3.6717088E0,1.2291584E0,3.934794E0,1.5660034E0,1.0286707E0,2.9061232E0],"tree_param":{"num_deleted":"0","num_feature":"9","num_nodes":"9","size_leaf_vector":"1"}},{"base_weights":[9.266518E-2,-3.80499E-2,3.5361943E-1,6.0402334E-1,-3.2132518E-2,7.73002E-1,-1.2303555E-2,3.1597477E-1,4.5195352E-2,-9.984247E-3,3.4115873E-2],"categories":[],"categories_nodes":[],"categories_segments":[],"categories_sizes":[],"default_left":[0,0,0,0,0,0,0,0,0,0,0],"id":58,"left_children":[1,-1,3,5,-1,7,-1,9,-1,-1,-1],"loss_changes":[2.7957866E0,0E0,2.7255979E0,1.3398421E0,0E0,1.2824392E-1,0E0,7.176404E-1,0E0,0E0,0E0],"parents":[2147483647,0,0,2,2,3,3,5,5,7,7],"right_children":[2,-1,4,6,-1,8,-1,10,-1,-1,-1],"split_conditions":[7.51E1,-3.80499E-2,2.88E1,2.5E1,-3.2132518E-2,1.188E2,-1.2303555E-2,2.6E2,4.5195352E-2,-9.984247E-3,3.4115873E-2],"split_indices":[8,0,4,7,0,8,0,2,0,0,0],"split_type":[0,0,0,0,0,0,0,0,0,0,0],"sum_hessian":[1.0342267E1,1.9727081E0,8.369559E0,7.0031037E0,1.3664554E0,5.9175262E0,1.0855778E0,2.0776432E0,3.8398829E0,1.0519098E0,1.0257332E0],"tree_param":{"num_deleted":"0","num_feature":"9","num_nodes":"11","size_leaf_vector":"1"}},{"base_weights":[1.2368604E-1,-3.5626654E-2,4.4500402E-1,-1.0907744E-1,8.1136125E-1,-3.1259056E-2,1.4763375E-2,4.7932107E-2,1.0025783E-2],"categories":[],"categories_nodes":[],"categories_segments":[],"categories_sizes":[],"default_left":[0,0,0,0,0,0,0,0,0],"id":59,"left_children":[1,-1,3,5,7,-1,-1,-1,-1],"loss_changes":[3.3599472E0,0E0,1.8741556E0,1.0992137E0,2.948432E-1,0E0,0E0,0E0,0E0],"parents":[2147483647,0,0,2,2,3,3,4,4],"right_children":[2,-1,4,6,8,-1,-1,-1,-1],"split_conditions":[7.86E1,-3.5626654E-2,2.6E2,3.5E0,6.271E3,-3.1259056E-2,1.4763375E-2,4.7932107E-2,1.0025783E-2],"split_indices":[8,0,2,6,0,0,0,0,0],"split_type":[0,0,0,0,0,0,0,0,0],"sum_hessian":[1.0324731E1,2.5280457E0,7.796685E0,3.382791E0,4.413894E0,1.2461078E0,2.1366835E0,3.097651E0,1.3162433E0],"tree_param":{"num_deleted":"0","num_feature":"9","num_nodes":"9","size_leaf_vector":"1"}},{"base_weights":[2.370629E-2,4.2107022E-1,-4.8268518E-1,-2.6398847E-2,3.8829427E-2,-1.0209175E-1,-3.8720883E-2,-2.5777379E-2,1.7828807E-2],"categories":[],"categories_nodes":[],"categories_segments":[],"categories_sizes":[],"default_left":[0,0,0,0,0,0,0,0,0],"id":60,"left_children":[1,3,5,-1,-1,7,-1,-1,-1],"loss_changes":[2.3502433E0,2.607393E0,4.9355268E-1,0E0,0E0,8.2664114E-1,0E0,0E0,0E0],"parents":[2147483647,0,0,1,1,2,2,5,5],"right_children":[2,4,6,-1,-1,8,-1,-1,-1],"split_conditions":[2.8E1,7.86E1,2.88E1,-2.6398847E-2,3.8829427E-2,1.543E2,-3.8720883E-2,-2.5777379E-2,1.7828807E-2],"split_indices":[4,8,4,0,0,8,0,0,0],"split_type":[0,0,0,0,0,0,0,0,0],"sum_hessian":[9.669818E0,5.512592E0,4.157226E0,1.3700876E0,4.142504E0,2.3896477E0,1.7675784E0,1.1915454E0,1.1981022E0],"tree_param":{"num_deleted":"0","num_feature":"9","num_nodes":"9","size_leaf_vector":"1"}},{"base_weights":[-1.7838122E-2,-4.0523905E-1,4.8793638E-1,-3.3186927E-2,-3.2264747E-2,-6.7728097E-3,3.6619697E-2,2.368937E-2,-2.7362755E-2],"categories":[],"categories_nodes":[],"categories_segments":[],"categories_sizes":[],"default_left":[0,0,0,0,0,0,0,0,0],"id":61,"left_children":[1,3,5,-1,7,-1,-1,-1,-1],"loss_changes":[2.178311E0,5.831208E-1,8.3648336E-1,0E0,1.202143E0,0E0,0E0,0E0,0E0],"parents":[2147483647,0,0,1,1,2,2,4,4],"right_children":[2,4,6,-1,8,-1,-1,-1,-1],"split_conditions":[3.6E0,1.19E2,8.8E1,-3.3186927E-2,3.374E3,-6.7728097E-3,3.6619697E-2,2.368937E-2,-2.7362755E-2],"split_indices":[6,3,5,0,0,0,0,0,0],"split_type":[0,0,0,0,0,0,0,0,0],"sum_hessian":[9.108223E0,5.2702327E0,3.8379905E0,2.6523623E0,2.6178706E0,1.2066913E0,2.6312993E0,1.3607476E0,1.257123E0],"tree_param":{"num_deleted":"0","num_feature":"9","num_nodes":"9","size_leaf_vector":"1"}},{"base_weights":[1.6419657E-1,-3.721921E-2,4.664664E-1,-5.3921705E-3,7.165072E-1,2.795584E-3,4.246681E-2],"categories":[],"categories_nodes":[],"categories_segments":[],"categories_sizes":[],"default_left":[0,0,0,0,0,0,0],"id":62,"left_children":[1,-1,3,-1,5,-1,-1],"loss_changes":[3.140272E0,0E0,1.2613959E0,0E0,4.6807575E-1,0E0,0E0],"parents":[2147483647,0,0,2,2,4,4],"right_children":[2,-1,4,-1,6,-1,-1],"split_conditions":[7.51E1,-3.721921E-2,8.8E1,-5.3921705E-3,9.03E1,2.795584E-3,4.246681E-2],"split_indices":[8,0,5,0,8,0,0],"split_type":[0,0,0,0,0,0,0],"sum_hessian":[9.169957E0,1.9240085E0,7.2459483E0,2.3703265E0,4.875622E0,1.0541201E0,3.8215015E0],"tree_param":{"num_deleted":"0","num_feature":"9","num_nodes":"7","size_leaf_vector":"1"}},{"base_weights":[1.674482E-2,-5.3686595E-1,3.8148814E-1,-1.6955476E-3,-3.663234E-2,6.208111E-1,-2.0589016E-3,1.0374439E-2,4.067173E-2],"categories":[],"categories_nodes":[],"categories_segments":[],"categories_sizes":[],"default_left":[0,0,0,0,0,0,0,0,0],"id":63,"left_children":[1,3,5,-1,-1,7,-1,-1,-1],"loss_changes":[2.221594E0,4.066707E-1,6.937356E-1,0E0,0E0,1.7195082E-1,0E0,0E0,0E0],"parents":[2147483647,0,0,1,1,2,2,5,5],"right_children":[2,4,6,-1,-1,8,-1,-1,-1],"split_conditions":[2.5E2,2.8E1,1.23E2,-1.6955476E-3,-3.663234E-2,1.16E2,-2.0589016E-3,1.0374439E-2,4.067173E-2],"split_indices":[2,4,3,0,0,3,0,0,0],"split_type":[0,0,0,0,0,0,0,0,0],"sum_hessian":[8.987757E0,3.3822484E0,5.6055083E0,1.276407E0,2.1058414E0,3.279682E0,2.3258264E0,1.7028846E0,1.5767972E0],"tree_param":{"num_deleted":"0","num_feature":"9","num_nodes":"9","size_leaf_vector":"1"}},{"base_weights":[-9.280252E-2,-3.022983E-1,3.3983093E-2,2.097538E-2,-4.6841136E-1,-3.8782585E-2,-3.574653E-2,2.081336E-2,-3.4670226E-2],"categories":[],"categories_nodes":[],"categories_segments":[],"categories_sizes":[],"default_left":[0,0,0,0,0,0,0,0,0],"id":64,"left_children":[1,3,-1,-1,5,-1,7,-1,-1],"loss_changes":[1.9444063E0,1.2930317E0,0E0,0E0,1.023343E0,0E0,1.576287E0,0E0,0E0],"parents":[2147483647,0,0,1,1,4,4,6,6],"right_children":[2,4,-1,-1,6,-1,8,-1,-1],"split_conditions":[3E2,7.8E0,3.3983093E-2,2.097538E-2,2.6E2,-3.8782585E-2,6.271E3,2.081336E-2,-3.4670226E-2],"split_indices":[2,7,0,0,2,0,0,0,0],"split_type":[0,0,0,0,0,0,0,0,0],"sum_hessian":[9.745638E0,8.145264E0,1.6003745E0,1.2384465E0,6.906817E0,3.5752554E0,3.3315616E0,2.1920166E0,1.139545E0],"tree_param":{"num_deleted":"0","num_feature":"9","num_nodes":"9","size_leaf_vector":"1"}},{"base_weights":[-7.9523E-2,-3.440539E-2,2.6863778E-1,-1.6178282E-1,5.5115247E-1,1.0604927E-2,-2.3873467E-2,3.516127E-2,4.3560574E-3],"categories":[],"categories_nodes":[],"categories_segments":[],"categories_sizes":[],"default_left":[0,0,0,0,0,0,0,0,0],"id":65,"left_children":[1,-1,3,5,7,-1,-1,-1,-1],"loss_changes":[2.2674625E0,0E0,9.3689054E-1,5.185785E-1,2.5175142E-1,0E0,0E0,0E0,0E0],"parents":[2147483647,0,0,2,2,3,3,4,4],"right_children":[2,-1,4,6,8,-1,-1,-1,-1],"split_conditions":[9.03E1,-3.440539E-2,8.9E1,3.578E3,6.271E3,1.0604927E-2,-2.3873467E-2,3.516127E-2,4.3560574E-3],"split_indices":[8,0,5,0,0,0,0,0,0],"split_type":[0,0,0,0,0,0,0,0,0],"sum_hessian":[8.828951E0,2.857549E0,5.9714017E0,2.535631E0,3.435771E0,1.3110421E0,1.2245889E0,2.1994836E0,1.2362874E0],"tree_param":{"num_deleted":"0","num_feature":"9","num_nodes":"9","size_leaf_vector":"1"}},{"base_weights":[-6.9451705E-2,-3.6536206E-2,1.6820599E-1,-3.0567068E-1,3.788964E-2,4.870487E-3,-5.888681E-1,-5.394499E-3,-3.911932E-2],"categories":[],"categories_nodes":[],"categories_segments":[],"categories_sizes":[],"default_left":[0,0,0,0,0,0,0,0,0],"id":66,"left_children":[1,-1,3,5,-1,-1,7,-1,-1],"loss_changes":[1.7136819E0,0E0,2.539127E0,6.6137934E-1,0E0,0E0,2.1807289E-1,0E0,0E0],"parents":[2147483647,0,0,2,2,3,3,6,6],"right_children":[2,-1,4,6,-1,-1,8,-1,-1],"split_conditions":[7.51E1,-3.6536206E-2,5.9E0,1.2E2,3.788964E-2,4.870487E-3,3.374E3,-5.394499E-3,-3.911932E-2],"split_indices":[8,0,1,3,0,0,0,0,0],"split_type":[0,0,0,0,0,0,0,0,0],"sum_hessian":[9.122205E0,1.8632102E0,7.258994E0,4.2913775E0,2.9676166E0,2.0415852E0,2.2497923E0,1.0923473E0,1.1574451E0],"tree_param":{"num_deleted":"0","num_feature":"9","num_nodes":"9","size_leaf_vector":"1"}},{"base_weights":[-8.081934E-3,3.0220833E-1,-3.23078E-2,-2.1741258E-2,5.595174E-1,2.6551026E-3,3.78544E-2],"categories":[],"categories_nodes":[],"categories_segments":[],"categories_sizes":[],"default_left":[0,0,0,0,0,0,0],"id":67,"left_children":[1,3,-1,-1,5,-1,-1],"loss_changes":[2.1382344E0,1.624674E0,0E0,0E0,5.437465E-1,0E0,0E0],"parents":[2147483647,0,0,1,1,4,4],"right_children":[2,4,-1,-1,6,-1,-1],"split_conditions":[2.83E1,3.1E0,-3.23078E-2,-2.1741258E-2,2.7E1,2.6551026E-3,3.78544E-2],"split_indices":[4,6,0,0,4,0,0],"split_type":[0,0,0,0,0,0,0],"sum_hessian":[8.81352E0,6.284024E0,2.5294962E0,1.44761E0,4.836414E0,1.7133945E0,3.1230195E0],"tree_param":{"num_deleted":"0","num_feature":"9","num_nodes":"7","size_leaf_vector":"1"}},{"base_weights":[3.9118443E-2,-4.402165E-1,4.8106983E-1,1.2567329E-2,-3.4658235E-2,1.8806273E-1,3.4772567E-2,2.759857E-2,-9.838641E-3],"categories":[],"categories_nodes":[],"categories_segments":[],"categories_sizes":[],"default_left":[0,0,0,0,0,0,0,0,0],"id":68,"left_children":[1,3,5,-1,-1,7,-1,-1,-1],"loss_changes":[2.183022E0,1.0464232E0,2.0334113E-1,0E0,0E0,6.153139E-1,0E0,0E0,0E0],"parents":[2147483647,0,0,1,1,2,2,5,5],"right_children":[2,4,6,-1,-1,8,-1,-1,-1],"split_conditions":[2.6E2,7.8E0,3E2,1.2567329E-2,-3.4658235E-2,2.8E2,3.4772567E-2,2.759857E-2,-9.838641E-3],"split_indices":[2,7,2,0,0,2,0,0,0],"split_type":[0,0,0,0,0,0,0,0,0],"sum_hessian":[8.305236E0,3.985998E0,4.319238E0,1.0691799E0,2.916818E0,2.6181295E0,1.7011088E0,1.1224307E0,1.4956987E0],"tree_param":{"num_deleted":"0","num_feature":"9","num_nodes":"9","size_leaf_vector":"1"}},{"base_weights":[-1.2715366E-1,3.0855533E-1,-3.1170039E-2,4.9619272E-1,-1.3983661E-2,3.061978E-2,5.200126E-3],"categories":[],"categories_nodes":[],"categories_segments":[],"categories_sizes":[],"default_left":[0,0,0,0,0,0,0],"id":69,"left_children":[1,3,-1,5,-1,-1,-1],"loss_changes":[2.2444606E0,7.703962E-1,0E0,1.5046418E-1,0E0,0E0,0E0],"parents":[2147483647,0,0,1,1,3,3],"right_children":[2,4,-1,6,-1,-1,-1],"split_conditions":[2.8E1,2.5E1,-3.1170039E-2,2.25E1,-1.3983661E-2,3.061978E-2,5.200126E-3],"split_indices":[4,7,0,1,0,0,0],"split_type":[0,0,0,0,0,0,0],"sum_hessian":[8.490857E0,4.7225995E0,3.768258E0,3.6990974E0,1.023502E0,2.4204586E0,1.2786387E0],"tree_param":{"num_deleted":"0","num_feature":"9","num_nodes":"7","size_leaf_vector":"1"}},{"base_weights":[-1.443759E-1,1.9799745E-1,-2.9823456E-2,-2.7171591E-2,5.5831367E-1,3.5527688E-2,1.6440405E-3],"categories":[],"categories_nodes":[],"categories_segments":[],"categories_sizes":[],"default_left":[0,0,0,0,0,0,0],"id":70,"left_children":[1,3,-1,-1,5,-1,-1],"loss_changes":[1.4682289E0,1.8300056E0,0E0,0E0,3.237064E-1,0E0,0E0],"parents":[2147483647,0,0,1,1,4,4],"right_children":[2,4,-1,-1,6,-1,-1],"split_conditions":[2.8E1,7.86E1,-2.9823456E-2,-2.7171591E-2,4.15E1,3.5527688E-2,1.6440405E-3],"split_indices":[4,8,0,0,1,0,0],"split_type":[0,0,0,0,0,0,0],"sum_hessian":[7.7226315E0,4.714415E0,3.0082169E0,1.3756032E0,3.3388116E0,2.315572E0,1.0232396E0],"tree_param":{"num_deleted":"0","num_feature":"9","num_nodes":"7","size_leaf_vector":"1"}},{"base_weights":[3.419973E-2,-5.4937845E-1,3.5630882E-1,-3.496425E-2,-4.341475E-3,-1.4673609E-1,6.438544E-1,-1.6301168E-2,4.8711663E-3,4.2019825E-2,2.592499E-3],"categories":[],"categories_nodes":[],"categories_segments":[],"categories_sizes":[],"default_left":[0,0,0,0,0,0,0,0,0,0,0],"id":71,"left_children":[1,3,5,-1,-1,7,9,-1,-1,-1,-1],"loss_changes":[1.9295889E0,1.9402301E-1,1.0419074E0,0E0,0E0,1.716949E-1,4.6294045E-1,0E0,0E0,0E0,0E0],"parents":[2147483647,0,0,1,1,2,2,5,5,6,6],"right_children":[2,4,6,-1,-1,8,10,-1,-1,-1,-1],"split_conditions":[9.03E1,7.51E1,2.1E0,-3.496425E-2,-4.341475E-3,2.85E1,6.271E3,-1.6301168E-2,4.8711663E-3,4.2019825E-2,2.592499E-3],"split_indices":[8,8,1,0,0,4,0,0,0,0,0],"split_type":[0,0,0,0,0,0,0,0,0,0,0],"sum_hessian":[8.223742E0,2.6738508E0,5.5498905E0,1.6328546E0,1.0409961E0,2.196657E0,3.3532338E0,1.073265E0,1.1233919E0,2.2024536E0,1.1507803E0],"tree_param":{"num_deleted":"0","num_feature":"9","num_nodes":"11","size_leaf_vector":"1"}},{"base_weights":[-4.5929465E-2,-2.9094413E-2,2.1448934E-1,-3.118157E-1,6.2780446E-1,1.98446E-3,-2.4274295E-2,4.1143447E-2,4.1288864E-3],"categories":[],"categories_nodes":[],"categories_segments":[],"categories_sizes":[],"default_left":[0,0,0,0,0,0,0,0,0],"id":72,"left_children":[1,-1,3,5,7,-1,-1,-1,-1],"loss_changes":[1.4167224E0,0E0,1.709769E0,2.4695024E-1,3.8196337E-1,0E0,0E0,0E0,0E0],"parents":[2147483647,0,0,2,2,3,3,4,4],"right_children":[2,-1,4,6,8,-1,-1,-1,-1],"split_conditions":[9.03E1,-2.9094413E-2,2.1E0,8E0,6.271E3,1.98446E-3,-2.4274295E-2,4.1143447E-2,4.1288864E-3],"split_indices":[8,0,1,7,0,0,0,0,0],"split_type":[0,0,0,0,0,0,0,0,0],"sum_hessian":[8.256135E0,2.296126E0,5.960009E0,2.7296789E0,3.2303302E0,1.1577945E0,1.5718844E0,2.0041037E0,1.2262266E0],"tree_param":{"num_deleted":"0","num_feature":"9","num_nodes":"9","size_leaf_vector":"1"}},{"base_weights":[4.225447E-2,-3.03253E-2,2.3165172E-1,-1.353818E-1,6.1948055E-1,2.021191E-1,-3.5598278E-2,7.3785516E-3,3.7085205E-2,2.331827E-6,1.5431697E-2],"categories":[],"categories_nodes":[],"categories_segments":[],"categories_sizes":[],"default_left":[0,0,0,0,0,0,0,0,0,0,0],"id":73,"left_children":[1,-1,3,5,7,9,-1,-1,-1,-1,-1],"loss_changes":[1.2757081E0,0E0,1.2048116E0,1.0909135E0,1.21736646E-1,8.282113E-2,0E0,0E0,0E0,0E0,0E0],"parents":[2147483647,0,0,2,2,3,3,4,4,5,5],"right_children":[2,-1,4,6,8,10,-1,-1,-1,-1,-1],"split_conditions":[7.51E1,-3.03253E-2,5.9E0,6.271E3,3.6E0,1.81E1,-3.5598278E-2,7.3785516E-3,3.7085205E-2,2.331827E-6,1.5431697E-2],"split_indices":[8,0,1,0,6,7,0,0,0,0,0],"split_type":[0,0,0,0,0,0,0,0,0,0,0],"sum_hessian":[8.238855E0,1.3640723E0,6.8747826E0,3.8665142E0,3.0082684E0,2.8485699E0,1.0179443E0,1.0729513E0,1.9353172E0,1.3285589E0,1.5200111E0],"tree_param":{"num_deleted":"0","num_feature":"9","num_nodes":"11","size_leaf_vector":"1"}},{"base_weights":[-3.783018E-2,-5.4582393E-1,2.7845126E-1,-3.4189902E-2,-6.771724E-3,5.6078184E-1,-1.9757716E-2,1.024299E-2,3.3030886E-2],"categories":[],"categories_nodes":[],"categories_segments":[],"categories_sizes":[],"default_left":[0,0,0,0,0,0,0,0,0],"id":74,"left_children":[1,3,5,-1,-1,7,-1,-1,-1],"loss_changes":[1.6999793E0,1.3584852E-1,1.4767716E0,0E0,0E0,4.4611216E-2,0E0,0E0,0E0],"parents":[2147483647,0,0,1,1,2,2,5,5],"right_children":[2,4,6,-1,-1,8,-1,-1,-1],"split_conditions":[2.5E2,8.8E1,1.25E2,-3.4189902E-2,-6.771724E-3,1.176E2,-1.9757716E-2,1.024299E-2,3.3030886E-2],"split_indices":[2,5,3,0,0,8,0,0,0],"split_type":[0,0,0,0,0,0,0,0,0],"sum_hessian":[8.634677E0,3.0347214E0,5.5999556E0,1.7725633E0,1.2621579E0,4.064063E0,1.5358924E0,1.5587987E0,2.5052645E0],"tree_param":{"num_deleted":"0","num_feature":"9","num_nodes":"9","size_leaf_vector":"1"}},{"base_weights":[-1.3299023E-1,-4.2764032E-1,3.4398586E-2,7.204076E-3,-5.5085814E-1,-3.5374235E-2,-1.9586341E-1,1.19394725E-2,-2.6174942E-2],"categories":[],"categories_nodes":[],"categories_segments":[],"categories_sizes":[],"default_left":[0,0,0,0,0,0,0,0,0],"id":75,"left_children":[1,3,-1,-1,5,-1,7,-1,-1],"loss_changes":[2.3982632E0,5.737277E-1,0E0,0E0,1.9396067E-1,0E0,5.82664E-1,0E0,0E0],"parents":[2147483647,0,0,1,1,4,4,6,6],"right_children":[2,4,-1,-1,6,-1,8,-1,-1],"split_conditions":[2.9E2,7.8E0,3.4398586E-2,7.204076E-3,2.6E2,-3.5374235E-2,1.22E2,1.19394725E-2,-2.6174942E-2],"split_indices":[2,7,0,0,2,0,3,0,0],"split_type":[0,0,0,0,0,0,0,0,0],"sum_hessian":[7.6981773E0,6.017533E0,1.6806443E0,1.0369297E0,4.980603E0,2.7668865E0,2.2137167E0,1.0680186E0,1.1456982E0],"tree_param":{"num_deleted":"0","num_feature":"9","num_nodes":"9","size_leaf_vector":"1"}},{"base_weights":[2.9100513E-2,-3.4574717E-2,3.153675E-1,-1.5857978E-1,3.6240466E-2,1.4378329E-2,-3.129515E-2],"categories":[],"categories_nodes":[],"categories_segments":[],"categories_sizes":[],"default_left":[0,0,0,0,0,0,0],"id":76,"left_children":[1,-1,3,5,-1,-1,-1],"loss_changes":[1.8768313E0,0E0,1.3649826E0,9.7355306E-1,0E0,0E0,0E0],"parents":[2147483647,0,0,2,2,3,3],"right_children":[2,-1,4,6,-1,-1,-1],"split_conditions":[7.86E1,-3.4574717E-2,5.9E0,3.578E3,3.6240466E-2,1.4378329E-2,-3.129515E-2],"split_indices":[8,0,1,0,0,0,0],"split_type":[0,0,0,0,0,0,0],"sum_hessian":[7.041188E0,1.5994569E0,5.4417305E0,2.8061633E0,2.6355674E0,1.6323936E0,1.1737697E0],"tree_param":{"num_deleted":"0","num_feature":"9","num_nodes":"7","size_leaf_vector":"1"}},{"base_weights":[9.733343E-2,-3.0671764E-2,3.0951932E-1,-8.040812E-2,3.460993E-2,2.419417E-2,-3.8532516E-1,-3.4926352E-3,-2.9516721E-2],"categories":[],"categories_nodes":[],"categories_segments":[],"categories_sizes":[],"default_left":[0,0,0,0,0,0,0,0,0],"id":77,"left_children":[1,-1,3,5,-1,-1,7,-1,-1],"loss_changes":[1.5614291E0,0E0,1.199883E0,9.941204E-1,0E0,0E0,1.9185656E-1,0E0,0E0],"parents":[2147483647,0,0,2,2,3,3,6,6],"right_children":[2,-1,4,6,-1,-1,8,-1,-1],"split_conditions":[2.2E2,-3.0671764E-2,5.9E0,8E0,3.460993E-2,2.419417E-2,3.374E3,-3.4926352E-3,-2.9516721E-2],"split_indices":[2,0,1,7,0,0,0,0,0],"split_type":[0,0,0,0,0,0,0,0,0],"sum_hessian":[8.09431E0,1.4261253E0,6.6681843E0,3.6940491E0,2.9741354E0,1.0899711E0,2.604078E0,1.5537953E0,1.0502826E0],"tree_param":{"num_deleted":"0","num_feature":"9","num_nodes":"9","size_leaf_vector":"1"}},{"base_weights":[4.4087976E-2,-3.3297163E-2,2.7758524E-1,-3.0380014E-1,6.1726683E-1,-2.8782606E-2,7.1539595E-3,3.900501E-2,2.4110284E-3],"categories":[],"categories_nodes":[],"categories_segments":[],"categories_sizes":[],"default_left":[0,0,0,0,0,0,0,0,0],"id":78,"left_children":[1,-1,3,5,7,-1,-1,-1,-1],"loss_changes":[1.6244305E0,0E0,1.6173383E0,4.881533E-1,4.164003E-1,0E0,0E0,0E0,0E0],"parents":[2147483647,0,0,2,2,3,3,4,4],"right_children":[2,-1,4,6,8,-1,-1,-1,-1],"split_conditions":[7.29E1,-3.3297163E-2,2.3E0,1.654E2,6.271E3,-2.8782606E-2,7.1539595E-3,3.900501E-2,2.4110284E-3],"split_indices":[8,0,1,8,0,0,0,0,0],"split_type":[0,0,0,0,0,0,0,0,0],"sum_hessian":[7.6831026E0,1.4430274E0,6.240075E0,2.3402426E0,3.8998325E0,1.2759055E0,1.064337E0,2.7437997E0,1.1560329E0],"tree_param":{"num_deleted":"0","num_feature":"9","num_nodes":"9","size_leaf_vector":"1"}},{"base_weights":[-6.2124785E-2,-5.1725864E-1,4.1511446E-1,1.1549698E-2,-4.1711543E-2,-2.1687956E-3,3.4058683E-2],"categories":[],"categories_nodes":[],"categories_segments":[],"categories_sizes":[],"default_left":[0,0,0,0,0,0,0],"id":79,"left_children":[1,3,5,-1,-1,-1,-1],"loss_changes":[2.1194685E0,1.3628769E0,6.194008E-1,0E0,0E0,0E0,0E0],"parents":[2147483647,0,0,1,1,2,2],"right_children":[2,4,6,-1,-1,-1,-1],"split_conditions":[2.6E2,7.8E0,5.9E0,1.1549698E-2,-4.1711543E-2,-2.1687956E-3,3.4058683E-2],"split_indices":[2,7,1,0,0,0,0],"split_type":[0,0,0,0,0,0,0],"sum_hessian":[7.769241E0,3.9337976E0,3.835443E0,1.251269E0,2.6825287E0,1.7157391E0,2.1197038E0],"tree_param":{"num_deleted":"0","num_feature":"9","num_nodes":"7","size_leaf_vector":"1"}},{"base_weights":[-1.09424E-1,-3.168991E-1,3.0687949E-2,9.467967E-3,-5.820786E-1,-3.7301116E-2,-2.8086343E-1,5.4195495E-3,-3.0389566E-2],"categories":[],"categories_nodes":[],"categories_segments":[],"categories_sizes":[],"default_left":[0,0,0,0,0,0,0,0,0],"id":80,"left_children":[1,3,-1,-1,5,-1,7,-1,-1],"loss_changes":[1.5285565E0,1.1262932E0,0E0,0E0,4.786706E-2,0E0,5.037581E-1,0E0,0E0],"parents":[2147483647,0,0,1,1,4,4,6,6],"right_children":[2,4,-1,-1,6,-1,8,-1,-1],"split_conditions":[3E2,8E0,3.0687949E-2,9.467967E-3,2.6E2,-3.7301116E-2,3.374E3,5.4195495E-3,-3.0389566E-2],"split_indices":[2,7,0,0,2,0,0,0,0],"split_type":[0,0,0,0,0,0,0,0,0],"sum_hessian":[7.891195E0,6.5685368E0,1.322658E0,2.3561993E0,4.2123375E0,1.771465E0,2.4408727E0,1.4193678E0,1.0215048E0],"tree_param":{"num_deleted":"0","num_feature":"9","num_nodes":"9","size_leaf_vector":"1"}},{"base_weights":[-3.207159E-2,-2.8166702E-2,3.750712E-1,3.8760263E-2,-5.5482306E-2,1.4911053E-2,-1.6718924E-2],"categories":[],"categories_nodes":[],"categories_segments":[],"categories_sizes":[],"default_left":[0,0,0,0,0,0,0],"id":81,"left_children":[1,-1,3,-1,5,-1,-1],"loss_changes":[1.9587072E0,0E0,9.3436885E-1,0E0,4.376261E-1,0E0,0E0],"parents":[2147483647,0,0,2,2,4,4],"right_children":[2,-1,4,-1,6,-1,-1],"split_conditions":[1.188E2,-2.8166702E-2,2.8E1,3.8760263E-2,8.7E1,1.4911053E-2,-1.6718924E-2],"split_indices":[8,0,4,0,5,0,0],"split_type":[0,0,0,0,0,0,0],"sum_hessian":[7.0786843E0,2.9047623E0,4.173922E0,1.7484853E0,2.4254367E0,1.0387617E0,1.386675E0],"tree_param":{"num_deleted":"0","num_feature":"9","num_nodes":"7","size_leaf_vector":"1"}},{"base_weights":[-6.503827E-2,-2.556324E-1,2.9304577E-2,1.6612833E-2,-4.4056866E-1,-3.3780277E-2,-8.0722645E-2,1.851174E-2,-2.9753154E-2],"categories":[],"categories_nodes":[],"categories_segments":[],"categories_sizes":[],"default_left":[0,0,0,0,0,0,0,0,0],"id":82,"left_children":[1,3,-1,-1,5,-1,7,-1,-1],"loss_changes":[1.2013147E0,9.346816E-1,0E0,0E0,4.4831336E-1,0E0,1.028582E0,0E0,0E0],"parents":[2147483647,0,0,1,1,4,4,6,6],"right_children":[2,4,-1,-1,6,-1,8,-1,-1],"split_conditions":[3E2,7.8E0,2.9304577E-2,1.6612833E-2,2.6E2,-3.3780277E-2,6.271E3,1.851174E-2,-2.9753154E-2],"split_indices":[2,7,0,0,2,0,0,0,0],"split_type":[0,0,0,0,0,0,0,0,0],"sum_hessian":[7.472828E0,6.250599E0,1.2222295E0,1.3051357E0,4.9454627E0,2.4607291E0,2.4847338E0,1.4732288E0,1.011505E0],"tree_param":{"num_deleted":"0","num_feature":"9","num_nodes":"9","size_leaf_vector":"1"}},{"base_weights":[2.512847E-2,-3.111601E-1,2.8430615E-2,-2.9701857E-2,8.029535E-2,1.2046135E-2,-6.2280945E-3],"categories":[],"categories_nodes":[],"categories_segments":[],"categories_sizes":[],"default_left":[0,0,0,0,0,0,0],"id":83,"left_children":[1,3,-1,-1,5,-1,-1],"loss_changes":[1.6988348E0,6.8888754E-1,0E0,0E0,1.3892554E-1,0E0,0E0],"parents":[2147483647,0,0,1,1,4,4],"right_children":[2,4,-1,-1,6,-1,-1],"split_conditions":[3.8E0,2.6E2,2.8430615E-2,-2.9701857E-2,2.8E2,1.2046135E-2,-6.2280945E-3],"split_indices":[6,2,0,0,2,0,0],"split_type":[0,0,0,0,0,0,0],"sum_hessian":[7.3270073E0,4.790368E0,2.5366392E0,2.4804292E0,2.309939E0,1.196062E0,1.1138768E0],"tree_param":{"num_deleted":"0","num_feature":"9","num_nodes":"7","size_leaf_vector":"1"}},{"base_weights":[2.3365958E-2,-3.0083014E-2,3.9923945E-1,7.8906946E-2,3.3335622E-2,1.5031564E-2,-7.5016352E-3],"categories":[],"categories_nodes":[],"categories_segments":[],"categories_sizes":[],"default_left":[0,0,0,0,0,0,0],"id":84,"left_children":[1,-1,3,5,-1,-1,-1],"loss_changes":[1.919501E0,0E0,3.813467E-1,2.1966901E-1,0E0,0E0,0E0],"parents":[2147483647,0,0,2,2,3,3],"right_children":[2,-1,4,6,-1,-1,-1],"split_conditions":[9.03E1,-3.0083014E-2,2.8E2,8E0,3.3335622E-2,1.5031564E-2,-7.5016352E-3],"split_indices":[8,0,2,7,0,0,0],"split_type":[0,0,0,0,0,0,0],"sum_hessian":[6.14804E0,2.083224E0,4.0648155E0,2.4389162E0,1.6258993E0,1.079902E0,1.3590142E0],"tree_param":{"num_deleted":"0","num_feature":"9","num_nodes":"7","size_leaf_vector":"1"}},{"base_weights":[7.4568726E-3,-3.2394256E-2,2.4205665E-1,3.0813286E-2,-2.3786622E-1,8.877828E-3,-2.5487313E-2],"categories":[],"categories_nodes":[],"categories_segments":[],"categories_sizes":[],"default_left":[0,0,0,0,0,0,0],"id":85,"left_children":[1,-1,3,-1,5,-1,-1],"loss_changes":[1.3789548E0,0E0,1.3286018E0,0E0,4.9768186E-1,0E0,0E0],"parents":[2147483647,0,0,2,2,4,4],"right_children":[2,-1,4,-1,6,-1,-1],"split_conditions":[7.51E1,-3.2394256E-2,1.21E2,3.0813286E-2,2.8E1,8.877828E-3,-2.5487313E-2],"split_indices":[8,0,3,0,4,0,0],"split_type":[0,0,0,0,0,0,0],"sum_hessian":[6.949169E0,1.367492E0,5.5816774E0,2.9766266E0,2.6050508E0,1.1677309E0,1.4373199E0],"tree_param":{"num_deleted":"0","num_feature":"9","num_nodes":"7","size_leaf_vector":"1"}},{"base_weights":[-3.495796E-2,-3.113758E-2,1.6719688E-1,4.363293E-1,-2.1879656E-2,-1.2313511E-2,4.075059E-2],"categories":[],"categories_nodes":[],"categories_segments":[],"categories_sizes":[],"default_left":[0,0,0,0,0,0,0],"id":86,"left_children":[1,-1,3,5,-1,-1,-1],"loss_changes":[1.0451007E0,0E0,1.2783602E0,1.5252373E0,0E0,0E0,0E0],"parents":[2147483647,0,0,2,2,3,3],"right_children":[2,-1,4,6,-1,-1,-1],"split_conditions":[7.14E1,-3.113758E-2,6.271E3,2.5E2,-2.1879656E-2,-1.2313511E-2,4.075059E-2],"split_indices":[8,0,0,2,0,0,0],"split_type":[0,0,0,0,0,0,0],"sum_hessian":[6.9190063E0,1.2381995E0,5.6808066E0,4.124114E0,1.5566927E0,1.5963166E0,2.5277975E0],"tree_param":{"num_deleted":"0","num_feature":"9","num_nodes":"7","size_leaf_vector":"1"}},{"base_weights":[9.072597E-2,-2.6020566E-2,2.8732872E-1,5.713545E-1,-1.2661415E-1,9.799678E-3,3.383429E-2,9.742471E-3,-2.169588E-2],"categories":[],"categories_nodes":[],"categories_segments":[],"categories_sizes":[],"default_left":[0,0,0,0,0,0,0,0,0],"id":87,"left_children":[1,-1,3,5,7,-1,-1,-1,-1],"loss_changes":[1.1354866E0,0E0,8.780433E-1,3.5235524E-2,4.408997E-1,0E0,0E0,0E0,0E0],"parents":[2147483647,0,0,2,2,3,3,4,4],"right_children":[2,-1,4,6,8,-1,-1,-1,-1],"split_conditions":[7.86E1,-2.6020566E-2,1.21E2,2.1E0,2.8E1,9.799678E-3,3.383429E-2,9.742471E-3,-2.169588E-2],"split_indices":[8,0,3,1,4,0,0,0,0],"split_type":[0,0,0,0,0,0,0,0,0],"sum_hessian":[7.2059684E0,1.3530401E0,5.8529286E0,3.2456563E0,2.6072721E0,1.3380578E0,1.9075985E0,1.4531261E0,1.1541461E0],"tree_param":{"num_deleted":"0","num_feature":"9","num_nodes":"9","size_leaf_vector":"1"}},{"base_weights":[3.0077267E-2,-2.7954066E-2,3.346313E-1,6.459966E-2,3.3423726E-2,3.0819616E-1,-1.4989859E-2,1.6768257E-3,2.2010876E-2],"categories":[],"categories_nodes":[],"categories_segments":[],"categories_sizes":[],"default_left":[0,0,0,0,0,0,0,0,0],"id":88,"left_children":[1,-1,3,5,-1,7,-1,-1,-1],"loss_changes":[1.66794E0,0E0,5.036749E-1,4.883441E-1,0E0,1.0005754E-1,0E0,0E0,0E0],"parents":[2147483647,0,0,2,2,3,3,5,5],"right_children":[2,-1,4,6,-1,8,-1,-1,-1],"split_conditions":[3.1E0,-2.7954066E-2,2.9E2,8E0,3.3423726E-2,2.3E0,-1.4989859E-2,1.6768257E-3,2.2010876E-2],"split_indices":[6,0,2,7,0,1,0,0,0],"split_type":[0,0,0,0,0,0,0,0,0],"sum_hessian":[7.2530723E0,2.186861E0,5.0662117E0,3.46059E0,1.6056217E0,2.1665182E0,1.2940716E0,1.1104146E0,1.0561037E0],"tree_param":{"num_deleted":"0","num_feature":"9","num_nodes":"9","size_leaf_vector":"1"}},{"base_weights":[2.0182472E-2,-2.7953003E-2,2.3104906E-1,5.2031904E-1,-1.652927E-1,-1.2972645E-3,3.8942706E-2,1.00377975E-2,-2.518489E-2],"categories":[],"categories_nodes":[],"categories_segments":[],"categories_sizes":[],"default_left":[0,0,0,0,0,0,0,0,0],"id":89,"left_children":[1,-1,3,5,7,-1,-1,-1,-1],"loss_changes":[1.1503022E0,0E0,8.6981213E-1,6.124048E-1,5.5243206E-1,0E0,0E0,0E0,0E0],"parents":[2147483647,0,0,2,2,3,3,4,4],"right_children":[2,-1,4,6,8,-1,-1,-1,-1],"split_conditions":[7.86E1,-2.7953003E-2,1.21E2,2.5E2,2.8E1,-1.2972645E-3,3.8942706E-2,1.00377975E-2,-2.518489E-2],"split_indices":[8,0,3,2,4,0,0,0,0],"split_type":[0,0,0,0,0,0,0,0,0],"sum_hessian":[7.3601413E0,1.5236053E0,5.836536E0,3.1931858E0,2.6433501E0,1.3147875E0,1.8783982E0,1.4652095E0,1.1781406E0],"tree_param":{"num_deleted":"0","num_feature":"9","num_nodes":"9","size_leaf_vector":"1"}},{"base_weights":[1.01212755E-1,-2.722603E-2,3.2170975E-1,-7.3472135E-2,5.850836E-1,-1.837678E-2,9.149804E-3,3.9389838E-2,7.403172E-3],"categories":[],"categories_nodes":[],"categories_segments":[],"categories_sizes":[],"default_left":[0,0,0,0,0,0,0,0,0],"id":90,"left_children":[1,-1,3,5,7,-1,-1,-1,-1],"loss_changes":[1.3512005E0,0E0,7.4925286E-1,3.38931E-1,2.53973E-1,0E0,0E0,0E0,0E0],"parents":[2147483647,0,0,2,2,3,3,4,4],"right_children":[2,-1,4,6,8,-1,-1,-1,-1],"split_conditions":[7.86E1,-2.722603E-2,2.6E2,1.188E2,1.23E2,-1.837678E-2,9.149804E-3,3.9389838E-2,7.403172E-3],"split_indices":[8,0,2,8,3,0,0,0,0],"split_type":[0,0,0,0,0,0,0,0,0],"sum_hessian":[7.2596154E0,1.4738572E0,5.7857585E0,2.6022387E0,3.1835198E0,1.0105213E0,1.5917172E0,1.626437E0,1.5570829E0],"tree_param":{"num_deleted":"0","num_feature":"9","num_nodes":"9","size_leaf_vector":"1"}},{"base_weights":[-3.2342374E-2,-2.9266689E-2,2.9228356E-1,-2.2900084E-2,3.2646373E-2,1.794254E-2,-1.7177476E-2],"categories":[],"categories_nodes":[],"categories_segments":[],"categories_sizes":[],"default_left":[0,0,0,0,0,0,0],"id":91,"left_children":[1,-1,3,5,-1,-1,-1],"loss_changes":[1.4981192E0,0E0,6.202285E-1,5.893716E-1,0E0,0E0,0E0],"parents":[2147483647,0,0,2,2,3,3],"right_children":[2,-1,4,6,-1,-1,-1],"split_conditions":[3.1E0,-2.9266689E-2,2.9E2,1.16E2,3.2646373E-2,1.794254E-2,-1.7177476E-2],"split_indices":[6,0,2,3,0,0,0],"split_type":[0,0,0,0,0,0,0],"sum_hessian":[6.3923244E0,2.0674233E0,4.324901E0,2.8076587E0,1.5172427E0,1.2273239E0,1.5803348E0],"tree_param":{"num_deleted":"0","num_feature":"9","num_nodes":"7","size_leaf_vector":"1"}},{"base_weights":[-1.1534112E-2,1.7680131E-1,-3.1190088E-2,-1.6435748E-1,3.2494687E-2,-3.931328E-1,1.5663577E-2,-2.4479775E-2,-3.2978212E-3],"categories":[],"categories_nodes":[],"categories_segments":[],"categories_sizes":[],"default_left":[0,0,0,0,0,0,0,0,0],"id":92,"left_children":[1,3,-1,5,-1,7,-1,-1,-1],"loss_changes":[1.0545177E0,1.2432907E0,0E0,6.5740955E-1,0E0,8.603799E-2,0E0,0E0,0E0],"parents":[2147483647,0,0,1,1,3,3,5,5],"right_children":[2,4,-1,6,-1,8,-1,-1,-1],"split_conditions":[2.88E1,3.6E0,-3.1190088E-2,1.543E2,3.2494687E-2,1.176E2,1.5663577E-2,-2.4479775E-2,-3.2978212E-3],"split_indices":[4,6,0,8,0,8,0,0,0],"split_type":[0,0,0,0,0,0,0,0,0],"sum_hessian":[7.188491E0,6.0413795E0,1.1471117E0,3.889298E0,2.1520815E0,2.7493286E0,1.1399692E0,1.7399158E0,1.0094128E0],"tree_param":{"num_deleted":"0","num_feature":"9","num_nodes":"9","size_leaf_vector":"1"}},{"base_weights":[6.3476436E-2,-2.2136968E-1,4.7655392E-1,-4.4443193E-1,1.8995434E-2,6.3719745E-3,3.0620499E-2,-2.798796E-2,-4.016189E-3],"categories":[],"categories_nodes":[],"categories_segments":[],"categories_sizes":[],"default_left":[0,0,0,0,0,0,0,0,0],"id":93,"left_children":[1,3,5,7,-1,-1,-1,-1,-1],"loss_changes":[1.0525124E0,8.993373E-1,9.2797756E-2,1.4120966E-1,0E0,0E0,0E0,0E0,0E0],"parents":[2147483647,0,0,1,1,2,2,3,3],"right_children":[2,4,6,8,-1,-1,-1,-1,-1],"split_conditions":[3.8E0,1.655E2,4.1E0,1.188E2,1.8995434E-2,6.3719745E-3,3.0620499E-2,-2.798796E-2,-4.016189E-3],"split_indices":[6,8,6,8,0,0,0,0,0],"split_type":[0,0,0,0,0,0,0,0,0],"sum_hessian":[7.048524E0,4.446467E0,2.6020567E0,3.4335454E0,1.0129217E0,1.2718312E0,1.3302257E0,2.1995263E0,1.2340193E0],"tree_param":{"num_deleted":"0","num_feature":"9","num_nodes":"9","size_leaf_vector":"1"}},{"base_weights":[-1.7072171E-2,2.7589205E-1,-3.731606E-1,-1.3131872E-2,3.1867933E-2,-2.3366312E-2,-5.3941496E-3],"categories":[],"categories_nodes":[],"categories_segments":[],"categories_sizes":[],"default_left":[0,0,0,0,0,0,0],"id":94,"left_children":[1,3,5,-1,-1,-1,-1],"loss_changes":[9.113676E-1,1.1069053E0,4.7577262E-2,0E0,0E0,0E0,0E0],"parents":[2147483647,0,0,1,1,2,2],"right_children":[2,4,6,-1,-1,-1,-1],"split_conditions":[1.21E2,2.5E2,1.655E2,-1.3131872E-2,3.1867933E-2,-2.3366312E-2,-5.3941496E-3],"split_indices":[3,2,8,0,0,0,0],"split_type":[0,0,0,0,0,0,0],"sum_hessian":[6.749295E0,3.8264115E0,2.922884E0,1.6466172E0,2.1797943E0,1.5950421E0,1.3278419E0],"tree_param":{"num_deleted":"0","num_feature":"9","num_nodes":"7","size_leaf_vector":"1"}},{"base_weights":[3.4419864E-2,-2.4102667E-1,2.2176405E-2,-2.7627839E-2,9.258576E-3],"categories":[],"categories_nodes":[],"categories_segments":[],"categories_sizes":[],"default_left":[0,0,0,0,0],"id":95,"left_children":[1,3,-1,-1,-1],"loss_changes":[9.481183E-1,7.8068626E-1,0E0,0E0,0E0],"parents":[2147483647,0,0,1,1],"right_children":[2,4,-1,-1,-1],"split_conditions":[3.8E0,2.6E2,2.2176405E-2,-2.7627839E-2,9.258576E-3],"split_indices":[6,2,0,0,0],"split_type":[0,0,0,0,0],"sum_hessian":[6.4650393E0,4.1092143E0,2.3558247E0,2.2026827E0,1.9065318E0],"tree_param":{"num_deleted":"0","num_feature":"9","num_nodes":"5","size_leaf_vector":"1"}},{"base_weights":[-4.676904E-2,-2.7005991E-2,3.654939E-1,3.3626046E-3,2.9491818E-2],"categories":[],"categories_nodes":[],"categories_segments":[],"categories_sizes":[],"default_left":[0,0,0,0,0],"id":96,"left_children":[1,-1,3,-1,-1],"loss_changes":[1.4933771E0,0E0,2.3248774E-1,0E0,0E0],"parents":[2147483647,0,0,2,2],"right_children":[2,-1,4,-1,-1],"split_conditions":[2.6E2,-2.7005991E-2,2.9E2,3.3626046E-3,2.9491818E-2],"split_indices":[2,0,2,0,0],"split_type":[0,0,0,0,0],"sum_hessian":[5.3718224E0,2.3042345E0,3.067588E0,1.874884E0,1.192704E0],"tree_param":{"num_deleted":"0","num_feature":"9","num_nodes":"5","size_leaf_vector":"1"}},{"base_weights":[1.0843332E-3,1.9678627E-1,-2.0479975E-2,-1.7670164E-1,4.8859534E-1,-2.8666664E-2,1.6376784E-2,7.6693567E-3,3.2142986E-2],"categories":[],"categories_nodes":[],"categories_segments":[],"categories_sizes":[],"default_left":[0,0,0,0,0,0,0,0,0],"id":97,"left_children":[1,3,-1,5,7,-1,-1,-1,-1],"loss_changes":[6.67383E-1,6.988512E-1,0E0,8.276654E-1,7.827628E-2,0E0,0E0,0E0,0E0],"parents":[2147483647,0,0,1,1,3,3,4,4],"right_children":[2,4,-1,6,8,-1,-1,-1,-1],"split_conditions":[6.271E3,2.1E0,-2.0479975E-2,2.5E2,1.176E2,-2.8666664E-2,1.6376784E-2,7.6693567E-3,3.2142986E-2],"split_indices":[0,1,0,2,8,0,0,0,0],"split_type":[0,0,0,0,0,0,0,0,0],"sum_hessian":[6.300828E0,4.620072E0,1.6807561E0,2.1994483E0,2.4206235E0,1.1543832E0,1.045065E0,1.391431E0,1.0291924E0],"tree_param":{"num_deleted":"0","num_feature":"9","num_nodes":"9","size_leaf_vector":"1"}},{"base_weights":[2.954752E-2,-3.417818E-1,3.6464003E-1,9.175955E-3,-2.9645666E-2,2.9922664E-2,-1.6056274E-3],"categories":[],"categories_nodes":[],"categories_segments":[],"categories_sizes":[],"default_left":[0,0,0,0,0,0,0],"id":98,"left_children":[1,3,5,-1,-1,-1,-1],"loss_changes":[1.0285971E0,6.3151616E-1,4.1835332E-1,0E0,0E0,0E0,0E0],"parents":[2147483647,0,0,1,1,2,2],"right_children":[2,4,6,-1,-1,-1,-1],"split_conditions":[2.6E2,7.8E0,1.23E2,9.175955E-3,-2.9645666E-2,2.9922664E-2,-1.6056274E-3],"split_indices":[2,7,3,0,0,0,0],"split_type":[0,0,0,0,0,0,0],"sum_hessian":[6.2649055E0,2.9623003E0,3.3026052E0,1.0452158E0,1.9170846E0,1.7581296E0,1.5444756E0],"tree_param":{"num_deleted":"0","num_feature":"9","num_nodes":"7","size_leaf_vector":"1"}},{"base_weights":[-7.2423905E-2,-2.642973E-1,2.7662832E-2,3.764636E-2,-2.656204E-2,2.1071505E-2,-2.5185948E-2],"categories":[],"categories_nodes":[],"categories_segments":[],"categories_sizes":[],"default_left":[0,0,0,0,0,0,0],"id":99,"left_children":[1,3,-1,5,-1,-1,-1],"loss_changes":[1.0379901E0,5.327548E-1,0E0,1.0265055E0,0E0,0E0,0E0],"parents":[2147483647,0,0,1,1,3,3],"right_children":[2,4,-1,6,-1,-1,-1],"split_conditions":[3E2,2.8E1,2.7662832E-2,2.25E1,-2.656204E-2,2.1071505E-2,-2.5185948E-2],"split_indices":[2,4,0,1,0,0,0],"split_type":[0,0,0,0,0,0,0],"sum_hessian":[6.4281974E0,5.3615804E0,1.066617E0,2.91892E0,2.4426603E0,1.8376904E0,1.0812298E0],"tree_param":{"num_deleted":"0","num_feature":"9","num_nodes":"7","size_leaf_vector":"1"}},{"base_weights":[-7.02754E-3,-3.0064842E-2,3.4382924E-1,3.614782E-2,-1.9112535E-2],"categories":[],"categories_nodes":[],"categories_segments":[],"categories_sizes":[],"default_left":[0,0,0,0,0],"id":100,"left_children":[1,-1,3,-1,-1],"loss_changes":[1.5929514E0,0E0,1.6022259E0,0E0,0E0],"parents":[2147483647,0,0,2,2],"right_children":[2,-1,4,-1,-1],"split_conditions":[2.5E2,-3.0064842E-2,1.25E2,3.614782E-2,-1.9112535E-2],"split_indices":[2,0,3,0,0],"split_type":[0,0,0,0,0],"sum_hessian":[5.6483703E0,1.8318498E0,3.8165205E0,2.510138E0,1.3063823E0],"tree_param":{"num_deleted":"0","num_feature":"9","num_nodes":"5","size_leaf_vector":"1"}},{"base_weights":[-2.4460208E-2,-3.8033825E-1,3.2179123E-1,-2.807968E-2,-5.1545855E-3,1.5163523E-3,2.4695022E-2],"categories":[],"categories_nodes":[],"categories_segments":[],"categories_sizes":[],"default_left":[0,0,0,0,0,0,0],"id":101,"left_children":[1,3,5,-1,-1,-1,-1],"loss_changes":[9.647445E-1,1.3454336E-1,1.8600512E-1,0E0,0E0,0E0,0E0],"parents":[2147483647,0,0,1,1,2,2],"right_children":[2,4,6,-1,-1,-1,-1],"split_conditions":[2.6E2,1.091E2,1.543E2,-2.807968E-2,-5.1545855E-3,1.5163523E-3,2.4695022E-2],"split_indices":[2,8,8,0,0,0,0],"split_type":[0,0,0,0,0,0,0],"sum_hessian":[5.8360057E0,2.8294475E0,3.0065582E0,1.0907425E0,1.738705E0,1.5529205E0,1.4536378E0],"tree_param":{"num_deleted":"0","num_feature":"9","num_nodes":"7","size_leaf_vector":"1"}},{"base_weights":[-9.204682E-4,-3.6192265E-1,2.7565783E-2,-3.444889E-2,2.7837504E-3],"categories":[],"categories_nodes":[],"categories_segments":[],"categories_sizes":[],"default_left":[0,0,0,0,0],"id":102,"left_children":[1,3,-1,-1,-1],"loss_changes":[1.5222795E0,6.687855E-1,0E0,0E0,0E0],"parents":[2147483647,0,0,1,1],"right_children":[2,4,-1,-1,-1],"split_conditions":[3.6E0,1.188E2,2.7565783E-2,-3.444889E-2,2.7837504E-3],"split_indices":[6,8,0,0,0],"split_type":[0,0,0,0,0],"sum_hessian":[5.635013E0,3.6158924E0,2.019121E0,1.6633364E0,1.9525559E0],"tree_param":{"num_deleted":"0","num_feature":"9","num_nodes":"5","size_leaf_vector":"1"}},{"base_weights":[1.3227501E-2,-3.06316E-2,2.5330904E-1,4.7006634E-1,-1.5689138E-2,-7.590932E-3,3.9035153E-2],"categories":[],"categories_nodes":[],"categories_segments":[],"categories_sizes":[],"default_left":[0,0,0,0,0,0,0],"id":103,"left_children":[1,-1,3,5,-1,-1,-1],"loss_changes":[1.1783347E0,0E0,8.39412E-1,9.825558E-1,0E0,0E0,0E0],"parents":[2147483647,0,0,2,2,3,3],"right_children":[2,-1,4,6,-1,-1,-1],"split_conditions":[7.86E1,-3.06316E-2,6.271E3,2.5E2,-1.5689138E-2,-7.590932E-3,3.9035153E-2],"split_indices":[8,0,0,2,0,0,0],"split_type":[0,0,0,0,0,0,0],"sum_hessian":[5.8093157E0,1.1804025E0,4.6289134E0,3.4726636E0,1.1562496E0,1.3271058E0,2.1455579E0],"tree_param":{"num_deleted":"0","num_feature":"9","num_nodes":"7","size_leaf_vector":"1"}},{"base_weights":[-3.2712508E-2,-3.0156597E-2,1.7199501E-1,3.9350677E-1,-1.6739884E-2,-7.0336224E-3,3.1903606E-2],"categories":[],"categories_nodes":[],"categories_segments":[],"categories_sizes":[],"default_left":[0,0,0,0,0,0,0],"id":104,"left_children":[1,-1,3,5,-1,-1,-1],"loss_changes":[9.5379335E-1,0E0,8.205035E-1,7.075636E-1,0E0,0E0,0E0],"parents":[2147483647,0,0,2,2,3,3],"right_children":[2,-1,4,6,-1,-1,-1],"split_conditions":[7.86E1,-3.0156597E-2,6.271E3,2.5E2,-1.6739884E-2,-7.0336224E-3,3.1903606E-2],"split_indices":[8,0,0,2,0,0,0],"split_type":[0,0,0,0,0,0,0],"sum_hessian":[6.279814E0,1.1444585E0,5.1353555E0,3.728999E0,1.4063565E0,1.3045056E0,2.4244933E0],"tree_param":{"num_deleted":"0","num_feature":"9","num_nodes":"7","size_leaf_vector":"1"}},{"base_weights":[7.301977E-2,2.7386937E-1,-1.7093163E-2,-2.2144213E-3,3.9638284E-1,6.7657395E-3,2.6565542E-2],"categories":[],"categories_nodes":[],"categories_segments":[],"categories_sizes":[],"default_left":[0,0,0,0,0,0,0],"id":105,"left_children":[1,3,-1,-1,5,-1,-1],"loss_changes":[6.766729E-1,2.229633E-1,0E0,0E0,6.566763E-2,0E0,0E0],"parents":[2147483647,0,0,1,1,4,4],"right_children":[2,4,-1,-1,6,-1,-1],"split_conditions":[6.271E3,3.216E3,-1.7093163E-2,-2.2144213E-3,2.1E0,6.7657395E-3,2.6565542E-2],"split_indices":[0,0,0,0,1,0,0],"split_type":[0,0,0,0,0,0,0],"sum_hessian":[5.9969196E0,4.2697654E0,1.7271544E0,1.3645744E0,2.905191E0,1.672326E0,1.2328651E0],"tree_param":{"num_deleted":"0","num_feature":"9","num_nodes":"7","size_leaf_vector":"1"}},{"base_weights":[-3.548956E-2,2.6110768E-1,-4.078735E-1,-8.124603E-3,2.766119E-2,-2.7386228E-2,-4.7369674E-3],"categories":[],"categories_nodes":[],"categories_segments":[],"categories_sizes":[],"default_left":[0,0,0,0,0,0,0],"id":106,"left_children":[1,3,5,-1,-1,-1,-1],"loss_changes":[8.2981914E-1,6.164257E-1,9.235287E-2,0E0,0E0,0E0,0E0],"parents":[2147483647,0,0,1,1,2,2],"right_children":[2,4,6,-1,-1,-1,-1],"split_conditions":[2.8E1,1.176E2,2.5E2,-8.124603E-3,2.766119E-2,-2.7386228E-2,-4.7369674E-3],"split_indices":[4,8,2,0,0,0,0],"split_type":[0,0,0,0,0,0,0],"sum_hessian":[5.5489645E0,3.2551312E0,2.2938333E0,1.5096778E0,1.7454535E0,1.067777E0,1.2260562E0],"tree_param":{"num_deleted":"0","num_feature":"9","num_nodes":"7","size_leaf_vector":"1"}},{"base_weights":[1.3862672E-1,3.3445808E-1,-1.6479459E-2,-1.0375222E-2,3.4390457E-2],"categories":[],"categories_nodes":[],"categories_segments":[],"categories_sizes":[],"default_left":[0,0,0,0,0],"id":107,"left_children":[1,3,-1,-1,-1],"loss_changes":[7.1299225E-1,1.1254146E0,0E0,0E0,0E0],"parents":[2147483647,0,0,1,1],"right_children":[2,4,-1,-1,-1],"split_conditions":[1.25E2,2.5E2,-1.6479459E-2,-1.0375222E-2,3.4390457E-2],"split_indices":[3,2,0,0,0],"split_type":[0,0,0,0,0],"sum_hessian":[5.5737767E0,4.131466E0,1.4423107E0,1.7934546E0,2.3380113E0],"tree_param":{"num_deleted":"0","num_feature":"9","num_nodes":"5","size_leaf_vector":"1"}},{"base_weights":[-5.6607388E-2,1.9180912E-1,-3.6424166E-1,-9.680138E-3,2.4864232E-2,2.0806333E-3,-3.1837296E-2],"categories":[],"categories_nodes":[],"categories_segments":[],"categories_sizes":[],"default_left":[0,0,0,0,0,0,0],"id":108,"left_children":[1,3,5,-1,-1,-1,-1],"loss_changes":[6.319676E-1,6.5249306E-1,4.2806795E-1,0E0,0E0,0E0,0E0],"parents":[2147483647,0,0,1,1,2,2],"right_children":[2,4,6,-1,-1,-1,-1],"split_conditions":[1.21E2,1.188E2,2.8E1,-9.680138E-3,2.4864232E-2,2.0806333E-3,-3.1837296E-2],"split_indices":[3,8,4,0,0,0,0],"split_type":[0,0,0,0,0,0,0],"sum_hessian":[6.355302E0,3.724361E0,2.630941E0,1.8086505E0,1.9157104E0,1.3972465E0,1.2336944E0],"tree_param":{"num_deleted":"0","num_feature":"9","num_nodes":"7","size_leaf_vector":"1"}},{"base_weights":[-1.03621535E-1,-3.083134E-1,1.8785381E-1,2.2612584E-3,-2.8820945E-2,2.5894558E-2,-8.003257E-3],"categories":[],"categories_nodes":[],"categories_segments":[],"categories_sizes":[],"default_left":[0,0,0,0,0,0,0],"id":109,"left_children":[1,3,5,-1,-1,-1,-1],"loss_changes":[4.8930508E-1,4.6456218E-1,4.967624E-1,0E0,0E0,0E0,0E0],"parents":[2147483647,0,0,1,1,2,2],"right_children":[2,4,6,-1,-1,-1,-1],"split_conditions":[5.9E0,1.21E2,2.51E1,2.2612584E-3,-2.8820945E-2,2.5894558E-2,-8.003257E-3],"split_indices":[1,3,1,0,0,0,0],"split_type":[0,0,0,0,0,0,0],"sum_hessian":[6.2304425E0,3.626161E0,2.6042812E0,1.9224409E0,